
\data\
ngram 1=11797
ngram 2=60220
ngram 3=5450

\1-grams:
-1.417532	</s>
-99	<s>	-0.6842372
-3.902009	A	-0.08949186
-4.655868	AAA	-0.08448812
-4.533962	ABM	-0.08448812
-4.655868	AIDS	-0.08448812
-4.655868	AIG	-0.08448812
-4.373839	AKP	-0.08448813
-4.655868	AKPs	-0.08448813
-4.655868	ALS	-0.08448812
-4.655868	AMSTERDAM	-0.08448813
-4.533962	ANDE	-0.08448814
-4.655868	ANKARA	-0.08448813
-4.655868	ARBOR	-0.08448813
-4.655868	ASEAN	-0.08448813
-4.655868	AUT	-0.08448813
-4.229971	Abbas	-0.08448813
-4.655868	Abductive	-0.08448812
-4.533962	Abe	-0.08448814
-4.655868	Abidine	-0.08448813
-4.655868	Abkhazia	-0.08448812
-4.655868	Above	-0.08448813
-4.655868	Abraham	-0.08448812
-4.655868	Abroad	-0.08448812
-4.655868	Absent	-0.08448812
-4.655868	Abstract	-0.08448812
-4.655868	Acclaimed	-0.08448812
-4.655868	Accord	-0.08448814
-4.655868	According	-0.08448812
-4.655868	Accords	-0.08448813
-4.655868	Accounting	-0.08448812
-4.655868	Accusing	-0.08448813
-4.655868	Across	-0.08448812
-4.229971	Act	-0.08448813
-4.655868	Acting	-0.08448814
-4.655868	Action	-0.08448813
-4.655868	Activities	-0.08448814
-4.655868	Acts	-0.08448814
-4.655868	Actually	-0.08448814
-4.655868	Adaptive	-0.08448812
-4.655868	Addressing	-0.08448812
-4.655868	Adjusted	-0.08448812
-4.533962	Administration	-0.08448813
-4.655868	Admittedly	-0.08448812
-4.655868	Adopting	-0.08448812
-4.655868	Advanced	-0.08448812
-4.655868	Adventures	-0.08448812
-4.655868	Advocacy	-0.08448813
-4.655868	Advocates	-0.08448814
-4.655868	Aerospace	-0.08448814
-4.655868	Affairs	-0.08448812
-4.533962	Afghan	-0.08448813
-4.655868	Afghanis	-0.08448813
-3.847965	Afghanistan	-0.1803891
-3.681227	Africa	-0.1466487
-3.902009	African	-0.1118667
-4.655868	Africas	-0.08448813
-4.533962	After	-0.1048586
-4.655868	Afterward	-0.08448813
-4.655868	Again	-0.08448812
-4.373839	Against	-0.08448814
-4.655868	Age	-0.08448814
-4.533962	Agency	-0.08448814
-4.655868	Agreed	-0.08448812
-4.533962	Agreement	-0.08448813
-4.373839	Agricultural	-0.08448812
-4.655868	Agriculture	-0.08448812
-4.655868	Ahmet	-0.08448812
-4.533962	Air	-0.08448812
-4.655868	Airborne	-0.08448813
-4.655868	Airbus	-0.08448813
-4.655868	Airplane	-0.08448812
-4.373839	Al	-0.3025371
-4.655868	Alan	-0.08448812
-4.655868	Alas	-0.08448813
-4.373839	Albania	-0.08448813
-4.373839	Albanian	-0.1724184
-4.533962	Albanians	-0.08448813
-4.655868	Albert	-0.08448812
-4.655868	Alberto	-0.08448812
-4.655868	Alerted	-0.08448813
-4.655868	Alesina	-0.08448814
-4.122087	Alex	-0.08448812
-4.655868	Alexander	-0.08448813
-4.655868	Alfred	-0.08448813
-4.655868	Ali	-0.08448813
-4.533962	All	-0.08448812
-4.655868	Allen	-0.08448812
-4.229971	Alliance	-0.08448813
-4.533962	Allied	-0.08448812
-4.655868	Allies	-0.08448813
-4.655868	Allocate	-0.08448812
-4.655868	Allowing	-0.08448813
-4.655868	Almost	-0.08448813
-4.655868	Along	-0.08448812
-4.655868	Already	-0.08448814
-4.655868	Although	-0.08448813
-4.655868	Altogether	-0.08448813
-4.533962	Alzheimer	-0.08448812
-4.655868	Amartya	-0.08448812
-4.533962	Amazon	-0.08448814
-3.035086	America	-0.1478691
-3.216898	American	-0.1048586
-4.655868	AmericanAsian	-0.08448813
-4.655868	AmericanStyle	-0.08448812
-4.655868	Americanled	-0.08448813
-3.588115	Americans	-0.1078482
-4.655868	Americaphobic	-0.08448813
-3.647922	Americas	-0.1118667
-4.655868	Americaus	-0.08448812
-4.655868	Amid	-0.08448812
-4.655868	Amish	-0.08448813
-4.655868	An	-0.08448813
-4.655868	Analyzing	-0.08448813
-4.655868	And	-0.08448813
-4.533962	Andean	-0.08448813
-4.655868	Anders	-0.08448812
-4.655868	Andersen	-0.08448812
-4.655868	Anderson	-0.08448813
-4.655868	Andes	-0.08448812
-4.655868	Andr	-0.08448812
-4.655868	Andreas	-0.08448812
-4.655868	Andropov	-0.08448812
-4.655868	Angela	-0.08448812
-4.655868	Angelica	-0.08448813
-4.655868	Angeloni	-0.08448813
-4.655868	AngloSaxon	-0.08448812
-4.655868	Angola	-0.08448812
-4.655868	Angst	-0.08448812
-4.655868	Anna	-0.08448812
-4.533962	Annan	-0.08448812
-4.655868	Annual	-0.08448813
-4.655868	Another	-0.08448813
-4.655868	Anthony	-0.08448813
-4.655868	AntiDrug	-0.08448813
-4.655868	Antiglobalization	-0.08448813
-4.655868	Any	-0.08448813
-4.655868	Anyone	-0.08448813
-4.655868	Apart	-0.08448813
-4.655868	Approach	-0.08448812
-4.122087	April	-0.08448812
-3.7173	Arab	-0.1327405
-4.655868	Arabia	-0.08448813
-4.533962	Arabs	-0.08448813
-4.655868	Arctic	-0.08448812
-4.533962	Are	-0.08448813
-4.655868	Areas	-0.08448813
-4.122087	Argentina	-0.1350844
-4.655868	Argentine	-0.08448812
-4.533962	Ariel	-0.08448812
-4.533962	Armenia	-0.08448812
-4.655868	Armenian	-0.08448812
-4.533962	Arms	-0.08448812
-4.655868	Arnold	-0.08448812
-4.655868	Around	-0.08448812
-4.655868	Arrow	-0.08448812
-4.533962	Arthur	-0.08448812
-4.655868	Artic	-0.08448813
-4.655868	Article	-0.08448812
-4.122087	As	-0.1023646
-4.655868	Ashish	-0.08448812
-4.533962	Ashton	-0.08448813
-3.7173	Asia	-0.1401068
-4.655868	AsiaPacific	-0.08448813
-4.533962	Asian	-0.08448814
-4.533962	Asians	-0.08448812
-4.655868	Asias	-0.08448812
-4.655868	Ask	-0.08448813
-4.533962	Assange	-0.08448813
-4.373839	Assembly	-0.08448812
-4.122087	Association	-0.3338536
-4.655868	Assuming	-0.08448813
-4.533962	At	-0.1032572
-4.655868	Atatrk	-0.08448813
-4.533962	Athens	-0.08448813
-4.373839	Atlantic	-0.08448813
-4.655868	Atlantis	-0.08448812
-4.655868	Atomic	-0.08448812
-4.655868	Attention	-0.08448813
-4.655868	Aubry	-0.08448813
-4.122087	August	-0.08448813
-4.229971	Aung	-0.4274758
-3.963748	Australia	-0.1154136
-4.533962	Australian	-0.08448812
-4.655868	Australias	-0.08448814
-4.655868	Austria	-0.08448814
-4.655868	Authoritarianism	-0.08448812
-4.229971	Authority	-0.1487113
-4.655868	Authorization	-0.08448813
-4.655868	AutoPilot	-0.08448812
-4.655868	Aviation	-0.08448813
-4.655868	Awarding	-0.08448813
-4.533962	Away	-0.224108
-4.655868	Azerbaijan	-0.08448813
-4.533962	B	-0.08448813
-4.655868	BBC	-0.08448812
-4.533962	BC	-0.08448813
-4.655868	BEIJING	-0.08448813
-4.655868	BERKELEY	-0.08448813
-4.655868	BERLIN	-0.08448813
-4.655868	BRUSSELS	-0.08448813
-4.655868	Baby	-0.08448812
-4.533962	Back	-0.08448814
-4.655868	Backyard	-0.08448812
-4.373839	Bad	-0.08448813
-4.533962	Baghdad	-0.08448813
-4.655868	Bahr	-0.08448812
-4.655868	Bahrain	-0.08448812
-4.655868	Baikonur	-0.08448814
-4.655868	Bail	-0.08448812
-4.655868	Balanced	-0.08448812
-4.373839	BalassaSamuelson	-0.3025371
-4.122087	Balkan	-0.08448812
-4.655868	Balkans	-0.08448812
-4.655868	Ball	-0.08448812
-4.533962	Baltic	-0.08448813
-4.655868	Baltics	-0.08448813
-4.373839	Ban	-0.08448812
-4.373839	Bangladesh	-0.08448814
-3.963748	Bank	-0.118531
-4.533962	Banking	-0.08448812
-4.533962	Banks	-0.08448812
-4.655868	Bansal	-0.08448814
-4.655868	Bar	-0.08448812
-4.373839	Barack	-0.3025371
-4.655868	Baradei	-0.08448812
-4.655868	Barrier	-0.08448812
-4.655868	Barring	-0.08448813
-4.533962	Barry	-0.224108
-4.655868	Based	-0.08448814
-4.655868	Bashar	-0.08448812
-4.533962	Basic	-0.224108
-4.655868	Basically	-0.08448813
-4.655868	Basques	-0.08448812
-4.655868	Battalion	-0.08448812
-4.655868	Battlefield	-0.08448813
-4.655868	Bavarians	-0.08448813
-4.655868	Bay	-0.08448814
-4.655868	Be	-0.08448812
-4.655868	Because	-0.08448812
-4.655868	Beckham	-0.08448813
-4.533962	Before	-0.08448813
-4.533962	Begin	-0.224108
-4.533962	Behind	-0.08448813
-4.122087	Beijing	-0.1262317
-4.655868	Being	-0.08448812
-4.533962	Belarus	-0.08448813
-4.035741	Belgium	-0.08448813
-4.655868	Belt	-0.08448813
-4.655868	Belusconi	-0.08448812
-4.533962	Ben	-0.08448812
-4.655868	BenGurion	-0.08448812
-4.655868	Benefits	-0.08448813
-4.035741	Berlin	-0.08448812
-4.229971	Berlusconi	-0.1487113
-4.655868	Berman	-0.08448813
-4.655868	Bernanke	-0.08448812
-4.373839	Bernie	-0.1724184
-4.655868	Bertrand	-0.08448812
-4.533962	Better	-0.08448812
-4.655868	Between	-0.08448813
-4.655868	Beyond	-0.08448812
-4.655868	Bezos	-0.08448814
-4.533962	Bhagat	-0.08448814
-4.655868	Bhanu	-0.08448812
-4.655868	Bharatiya	-0.08448812
-4.655868	Big	-0.08448812
-4.655868	Bilderberg	-0.08448812
-4.533962	Bill	-0.08448814
-4.655868	Binny	-0.08448813
-4.655868	Binyamin	-0.08448813
-4.655868	Biofuels	-0.08448812
-4.655868	Birol	-0.08448812
-4.655868	Bisignani	-0.08448812
-4.655868	Bismarckian	-0.08448813
-4.373839	Black	-0.08448814
-4.655868	Blagden	-0.08448814
-4.533962	Blair	-0.08448812
-4.533962	Blairs	-0.08448813
-4.655868	Bloc	-0.08448812
-4.533962	Blue	-0.08448812
-4.655868	Blueprint	-0.08448812
-4.655868	Bo	-0.08448812
-4.655868	Board	-0.08448814
-4.373839	Bolivia	-0.08448813
-4.229971	Bollywood	-0.08448813
-4.533962	Bomb	-0.08448813
-4.655868	Bone	-0.08448812
-4.655868	Booth	-0.08448812
-4.655868	Booz	-0.08448812
-4.655868	Borders	-0.08448813
-4.533962	Boris	-0.224108
-4.655868	Born	-0.08448814
-4.655868	BornAgain	-0.08448813
-4.122087	Bosnia	-0.1540601
-4.373839	Bosnian	-0.1487113
-4.655868	Both	-0.08448813
-4.655868	Boycott	-0.08448812
-4.655868	Boys	-0.08448814
-4.655868	Brandt	-0.08448812
-3.561041	Brazil	-0.225107
-4.533962	Brazilian	-0.08448813
-4.229971	Brazils	-0.08448813
-4.533962	Breakthrough	-0.08448813
-4.655868	Brezhnev	-0.08448813
-4.655868	Bride	-0.08448812
-4.655868	Brin	-0.08448813
-3.681227	Britain	-0.1364564
-4.533962	Britains	-0.08448812
-3.535556	British	-0.1201131
-4.655868	Britons	-0.08448812
-4.655868	Broadly	-0.08448813
-4.655868	Broken	-0.08448812
-4.655868	Brothers	-0.08448813
-4.655868	Brown	-0.08448812
-4.373839	Bruni	-0.08448813
-4.533962	Brussels	-0.08448813
-4.655868	Buchi	-0.08448813
-4.655868	Budapest	-0.08448814
-4.655868	Budget	-0.08448812
-4.655868	Budgetary	-0.08448812
-4.655868	Building	-0.08448814
-4.533962	Bulgaria	-0.08448813
-4.533962	Bundestag	-0.08448813
-4.533962	Burgess	-0.08448813
-3.467008	Burma	-0.1168095
-4.122087	Burmese	-0.08448813
-4.655868	Burning	-0.08448812
-3.756643	Bush	-0.1769091
-4.655868	Bushehr	-0.08448814
-4.373839	Bushs	-0.08448812
-4.533962	Business	-0.08448813
-4.655868	Businessmen	-0.08448813
-4.533962	But	-0.08643395
-4.655868	Button	-0.08448812
-4.533962	By	-0.08448813
-4.655868	Byzantine	-0.08448813
-4.533962	C	-0.08448813
-4.655868	CAMBRIDGE	-0.08448813
-4.035741	CAP	-0.08448812
-4.533962	CBO	-0.08448812
-4.655868	CDS	-0.08448812
-4.533962	CDSs	-0.08448812
-4.655868	CEC	-0.08448812
-4.655868	CEPR	-0.08448812
-4.655868	CFE	-0.08448813
-4.122087	CFLs	-0.1350844
-4.655868	CHICAGO	-0.08448812
-4.655868	CNN	-0.08448812
-3.7173	CO	-0.23684
-4.655868	COMECON	-0.08448813
-4.655868	COP	-0.08448813
-4.533962	COPARMEX	-0.08448813
-4.655868	COPENHAGEN	-0.08448812
-4.533962	CPA	-0.08448814
-4.533962	CTBT	-0.1724184
-4.655868	CUT	-0.08448813
-4.655868	Caceres	-0.08448813
-4.533962	Cairo	-0.08448812
-4.655868	Calculus	-0.08448814
-4.655868	Caldern	-0.08448813
-4.655868	Caldwell	-0.08448813
-4.229971	California	-0.1487113
-4.655868	Call	-0.08448812
-4.229971	Cambridge	-0.08448813
-3.902009	Cameron	-0.1540601
-4.655868	Campaigners	-0.08448812
-4.533962	Can	-0.08448813
-4.035741	Canada	-0.120017
-4.533962	Canadian	-0.08448812
-4.655868	Canadians	-0.08448812
-4.655868	Cancun	-0.08448812
-4.655868	Cannes	-0.08448813
-4.655868	Cannot	-0.08448812
-4.533962	Capital	-0.08448812
-4.655868	Carbondioxide	-0.08448813
-4.533962	Caribbean	-0.08448812
-4.533962	Carl	-0.08448813
-4.655868	Carla	-0.08448812
-4.229971	Carmen	-0.2369436
-4.655868	Carter	-0.08448813
-4.655868	Carters	-0.08448812
-4.655868	Cartesian	-0.08448812
-4.655868	Casertano	-0.08448813
-4.655868	Catalans	-0.08448813
-4.533962	Catherine	-0.224108
-4.655868	Catholic	-0.08448813
-4.655868	Catholics	-0.08448812
-4.533962	Caucasus	-0.1724184
-4.655868	Ceaucescu	-0.08448812
-4.655868	Celebrate	-0.08448813
-4.655868	Celsius	-0.08448813
-4.373839	Center	-0.08448813
-4.655868	Centerless	-0.08448812
-3.963748	Central	-0.1774377
-4.655868	Centre	-0.08448812
-4.533962	Century	-0.08448813
-4.655868	Certainly	-0.08448812
-4.655868	Chaim	-0.08448812
-4.533962	Chairman	-0.08448813
-4.533962	Chamber	-0.224108
-4.655868	Chamberlain	-0.08448813
-4.655868	Chambers	-0.08448814
-4.655868	Champion	-0.08448814
-4.655868	Chance	-0.08448812
-4.035741	Chancellor	-0.2081088
-4.533962	Change	-0.08448812
-4.655868	Changing	-0.08448813
-4.655868	Chaos	-0.08448813
-4.655868	Chapter	-0.08448812
-4.035741	Charles	-0.1799693
-4.655868	CharlesinSpaceorg	-0.08448812
-4.122087	Charter	-0.08448812
-4.655868	Chechnya	-0.08448812
-4.655868	Chemistry	-0.08448812
-4.035741	Cherkesov	-0.120017
-4.533962	Chernobyl	-0.08448812
-4.655868	Chetan	-0.08448813
-4.655868	Chicago	-0.08448812
-4.533962	Chief	-0.08448813
-4.533962	Chile	-0.08448812
-4.655868	Chilean	-0.08448814
-4.655868	Chiles	-0.08448813
-3.027337	China	-0.2108916
-4.655868	ChinaEU	-0.08448813
-3.467008	Chinese	-0.1189898
-3.902009	Chirac	-0.12961
-4.533962	Chiracs	-0.08448812
-4.655868	Chomsky	-0.08448813
-4.655868	Choosing	-0.08448813
-4.533962	Chris	-0.08448812
-4.655868	Christian	-0.08448812
-4.655868	Christine	-0.08448812
-4.533962	Christmas	-0.224108
-4.655868	Chrysochoidis	-0.08448813
-4.655868	Chu	-0.08448812
-4.655868	Chunghee	-0.08448812
-4.655868	Churches	-0.08448812
-4.533962	Churchill	-0.08448813
-3.902009	Chvez	-0.08448812
-4.655868	Citalopram	-0.08448814
-4.655868	Citibank	-0.08448813
-4.655868	Citizens	-0.08448812
-4.533962	City	-0.08448813
-4.533962	Ciudad	-0.224108
-4.533962	Civil	-0.08448813
-4.655868	Civilization	-0.08448814
-4.655868	Clarion	-0.08448812
-4.655868	Class	-0.08448813
-4.655868	Claude	-0.08448812
-4.655868	Clausewitz	-0.08448813
-4.655868	Clausewitzian	-0.08448813
-4.655868	Clear	-0.08448813
-4.655868	Clearly	-0.08448812
-4.655868	Clemenceau	-0.08448813
-4.533962	Clendinen	-0.08448813
-4.229971	Climate	-0.1350844
-4.533962	Clinton	-0.1350844
-4.655868	Clockwork	-0.08448813
-4.655868	Closer	-0.08448812
-4.655868	Closing	-0.08448813
-4.655868	Cloud	-0.08448812
-4.655868	Coalition	-0.08448812
-4.229971	Cold	-0.4274759
-4.655868	Collectively	-0.08448812
-4.533962	Colombia	-0.08448813
-4.533962	Come	-0.08448814
-4.655868	Comeback	-0.08448813
-4.533962	Commerce	-0.08448812
-3.902009	Commission	-0.1421202
-4.655868	Commissioner	-0.08448813
-4.122087	Committee	-0.08448813
-4.655868	Commodity	-0.08448813
-4.533962	Common	-0.08448813
-4.655868	Communicator	-0.08448813
-4.229971	Communism	-0.2369436
-4.655868	Communisms	-0.08448813
-4.122087	Communist	-0.2469161
-4.533962	Communists	-0.08448813
-4.373839	Community	-0.08448813
-4.655868	Companies	-0.08448812
-4.655868	Compare	-0.08448813
-4.655868	Compared	-0.08448812
-4.655868	Completely	-0.08448812
-4.533962	Comprehensive	-0.08448813
-4.655868	Concentration	-0.08448814
-4.655868	Conceptually	-0.08448813
-4.655868	Conditions	-0.08448812
-4.655868	Confederal	-0.08448812
-4.533962	Confederation	-0.08448813
-4.122087	Conference	-0.3338536
-4.655868	Confronted	-0.08448812
-4.655868	Confronting	-0.08448813
-4.373839	Confucian	-0.08448812
-4.533962	Confucianism	-0.08448813
-3.847965	Congress	-0.1090498
-4.655868	Congressional	-0.08448812
-4.229971	Consensus	-0.08448812
-4.655868	Consequently	-0.08448812
-4.533962	Conservative	-0.1724184
-4.655868	Conservatives	-0.08448812
-4.655868	Consider	-0.08448813
-4.655868	Considered	-0.08448813
-4.373839	Conspiracy	-0.08448812
-4.122087	Constitution	-0.08448813
-4.122087	Constitutional	-0.1799693
-4.655868	Constitutions	-0.08448814
-4.655868	Consumption	-0.08448812
-4.655868	Contagion	-0.08448814
-4.655868	Continent	-0.08448812
-4.655868	Continental	-0.08448813
-4.655868	Continuing	-0.08448813
-4.655868	Contrary	-0.08448812
-4.655868	Controls	-0.08448813
-4.229971	Convention	-0.08448813
-4.655868	Conventional	-0.08448813
-4.655868	Conversely	-0.08448814
-4.655868	Cool	-0.08448812
-4.533962	Cooperation	-0.08448812
-4.655868	Coordination	-0.08448812
-4.229971	Copenhagen	-0.1154136
-4.533962	Coral	-0.08448812
-4.655868	Corals	-0.08448813
-4.655868	Cordoba	-0.08448813
-4.655868	Corporate	-0.08448812
-4.655868	Correa	-0.08448813
-4.655868	Correct	-0.08448812
-4.655868	Corruption	-0.08448813
-4.655868	Corsicans	-0.08448812
-4.655868	Could	-0.08448814
-3.963748	Council	-0.1032572
-4.655868	Councilmandated	-0.08448813
-4.533962	Countries	-0.08448813
-4.655868	Coup	-0.08448814
-4.655868	Couple	-0.08448813
-4.122087	Court	-0.1288167
-4.655868	Cowen	-0.08448814
-4.655868	CowenMichael	-0.08448813
-4.655868	Creative	-0.08448813
-4.655868	Crimea	-0.08448813
-4.373839	Crisis	-0.08448814
-4.655868	Criteria	-0.08448813
-4.655868	Critics	-0.08448812
-4.122087	Croatia	-0.2018705
-4.533962	Croats	-0.08448814
-4.655868	Cross	-0.08448813
-4.122087	Crowley	-0.08448813
-4.655868	Crown	-0.08448812
-4.655868	Crucially	-0.08448812
-4.655868	Cuba	-0.08448812
-4.655868	Cultural	-0.08448812
-4.229971	Cup	-0.1154137
-4.373839	Cure	-0.3025371
-4.533962	Currency	-0.08448812
-4.655868	Current	-0.08448813
-4.655868	Curse	-0.08448812
-4.655868	Curtain	-0.08448814
-4.533962	Customs	-0.224108
-4.655868	Cutting	-0.08448812
-4.655868	Cypriot	-0.08448813
-4.655868	Cypriots	-0.08448813
-3.902009	Cyprus	-0.1392255
-4.533962	Czech	-0.08448812
-4.655868	CzechSlovak	-0.08448812
-4.229971	Czechoslovakia	-0.1350844
-4.533962	Czechs	-0.08448814
-4.655868	D	-0.08448812
-4.655868	DC	-0.08448813
-4.655868	DDay	-0.08448813
-4.655868	DELHI	-0.08448812
-4.655868	DSK	-0.08448812
-4.655868	Daiichi	-0.08448814
-4.655868	Dam	-0.08448814
-4.655868	Damascus	-0.08448813
-4.655868	Damocles	-0.08448813
-4.655868	Daniel	-0.08448812
-4.655868	Danish	-0.08448813
-4.655868	Daughter	-0.08448814
-4.533962	David	-0.08448812
-4.373839	Davutolu	-0.08448814
-4.122087	Day	-0.08448813
-4.655868	DeGlobalized	-0.08448813
-4.229971	Deal	-0.1540601
-4.533962	Death	-0.08448813
-4.655868	Deauville	-0.08448813
-4.655868	Debate	-0.08448812
-4.533962	Debt	-0.08448813
-4.533962	Decade	-0.224108
-4.229971	December	-0.08448813
-4.655868	Decembers	-0.08448813
-4.373839	Declaration	-0.1724184
-4.655868	Deductive	-0.08448812
-4.655868	Default	-0.08448814
-4.533962	Defense	-0.08448812
-4.655868	Delaying	-0.08448813
-4.655868	Delhi	-0.08448812
-4.655868	Delhibased	-0.08448812
-4.655868	Delors	-0.08448812
-4.373839	Democracy	-0.1350844
-4.229971	Democratic	-0.08448813
-4.533962	Democrats	-0.224108
-4.655868	Deng	-0.08448812
-4.373839	Denmark	-0.08448813
-4.655868	Denmarks	-0.08448812
-4.373839	Department	-0.08448813
-4.655868	Depending	-0.08448814
-4.533962	Depression	-0.120017
-4.655868	Derided	-0.08448813
-4.655868	Designed	-0.08448812
-4.655868	Despite	-0.08448813
-4.655868	Detroit	-0.08448814
-4.655868	Deutsche	-0.08448812
-4.533962	Devaluation	-0.08448813
-4.533962	Developing	-0.08448813
-3.902009	Development	-0.1392255
-4.655868	Dhawan	-0.08448812
-4.655868	Dictatorship	-0.08448813
-4.655868	Diego	-0.08448813
-4.655868	Differences	-0.08448814
-4.655868	Different	-0.08448812
-4.533962	Dignity	-0.08448812
-4.655868	Dim	-0.08448812
-4.655868	Dimension	-0.08448814
-4.655868	Director	-0.08448814
-4.655868	Disagreement	-0.08448812
-4.655868	Disarmament	-0.08448812
-4.655868	Disbelief	-0.08448813
-4.655868	Discussion	-0.08448812
-4.655868	Disease	-0.08448812
-4.655868	Dismal	-0.08448813
-4.655868	Disney	-0.08448812
-4.655868	Dissident	-0.08448814
-4.655868	Divide	-0.08448813
-4.655868	Divorce	-0.08448813
-4.655868	Dmitri	-0.08448812
-4.655868	Dmitry	-0.08448813
-4.655868	Doctors	-0.08448812
-4.655868	Documentation	-0.08448812
-4.655868	DoddFrank	-0.08448814
-4.533962	Does	-0.1350844
-4.533962	Doha	-0.08448812
-4.655868	Dollars	-0.08448812
-4.655868	Dombret	-0.08448813
-4.533962	Dominique	-0.08448813
-4.122087	Donald	-0.2018705
-4.655868	Donetsk	-0.08448813
-4.655868	Dont	-0.08448812
-4.655868	Doomed	-0.08448813
-4.655868	Doomsday	-0.08448812
-4.655868	DoubleDip	-0.08448812
-4.655868	Dow	-0.08448813
-4.655868	DowJones	-0.08448812
-4.655868	Downturns	-0.08448814
-4.655868	Dozens	-0.08448814
-4.655868	Drawing	-0.08448814
-4.655868	Dreams	-0.08448813
-4.533962	Dresden	-0.08448813
-4.655868	Driven	-0.08448813
-4.655868	Drones	-0.08448812
-4.655868	Droughts	-0.08448813
-4.533962	Drug	-0.08448814
-4.655868	Dubai	-0.08448812
-4.533962	Dudley	-0.224108
-4.533962	During	-0.1350844
-4.655868	Dusan	-0.08448812
-3.847965	Dutch	-0.0949969
-4.655868	Dwight	-0.08448812
-4.533962	ECB	-0.08448813
-4.373839	ECJ	-0.08448812
-4.655868	EEAS	-0.08448812
-4.533962	EIA	-0.08448813
-3.847965	EMU	-0.1032572
-4.373839	ENP	-0.1262317
-4.122087	ERM	-0.5243859
-4.533962	ESM	-0.08448812
-3.035086	EU	-0.1719198
-4.655868	EUChile	-0.08448812
-4.655868	EUMexico	-0.08448812
-4.655868	EUTurkey	-0.08448813
-4.655868	EUUS	-0.08448812
-4.655868	EUUkrainian	-0.08448813
-4.655868	EUlevel	-0.08448812
-4.655868	EUmembership	-0.08448812
-4.655868	EUregime	-0.08448812
-4.655868	EUrelated	-0.08448813
-4.533962	EUs	-0.08448813
-4.655868	EUto	-0.08448812
-4.373839	EUwide	-0.08448812
-4.655868	Each	-0.08448812
-4.655868	Earlier	-0.08448812
-4.655868	Early	-0.08448813
-4.229971	Earth	-0.08448813
-4.122087	East	-0.1343071
-4.655868	EastCentral	-0.08448813
-4.655868	EastWest	-0.08448813
-3.963748	Eastern	-0.1774377
-4.655868	Ecological	-0.08448813
-3.963748	Economic	-0.08448812
-4.655868	Economics	-0.08448813
-4.655868	Economist	-0.08448814
-4.655868	Economists	-0.08448812
-4.655868	Economy	-0.08448813
-4.655868	Ecuador	-0.08448813
-4.655868	Ecuadoran	-0.08448812
-4.655868	Ecuadorian	-0.08448813
-4.655868	Edmonton	-0.08448813
-4.373839	Education	-0.08448812
-4.655868	Edward	-0.08448812
-4.655868	Efficiency	-0.08448812
-4.655868	Egon	-0.08448812
-4.122087	Egypt	-0.120017
-4.373839	Egyptian	-0.08448814
-4.533962	Egyptians	-0.08448813
-4.373839	Eichengreen	-0.08448814
-4.655868	Eighty	-0.08448813
-4.655868	Eiland	-0.08448813
-4.655868	Einstein	-0.08448812
-4.655868	Eisenhower	-0.08448813
-4.655868	Either	-0.08448812
-4.122087	El	-0.1262317
-4.655868	Elders	-0.08448814
-4.655868	Elected	-0.08448812
-4.655868	Election	-0.08448812
-4.533962	Elections	-0.08448813
-4.655868	Electoral	-0.08448813
-4.655868	Elena	-0.08448812
-4.655868	Ellsberg	-0.08448813
-4.655868	Elon	-0.08448812
-4.655868	Elsewhere	-0.08448812
-4.655868	Elyse	-0.08448812
-4.655868	Elysee	-0.08448812
-4.533962	Emerging	-0.08448813
-4.655868	Emergingmarket	-0.08448812
-4.655868	Emerson	-0.08448812
-4.655868	Emily	-0.08448812
-4.655868	Emirates	-0.08448813
-4.373839	Empire	-0.08448812
-4.655868	Empires	-0.08448813
-4.655868	Emulating	-0.08448812
-4.655868	End	-0.08448814
-4.655868	Endesa	-0.08448812
-4.655868	Enel	-0.08448813
-4.373839	Energy	-0.1487113
-4.229971	English	-0.1487113
-4.655868	Englishman	-0.08448813
-4.655868	Enlargement	-0.08448814
-4.655868	Enlarging	-0.08448812
-4.533962	Enough	-0.08448812
-4.533962	Enron	-0.08448813
-4.655868	Enronlike	-0.08448813
-4.655868	Ensuring	-0.08448813
-4.655868	Entrepreneurial	-0.08448812
-4.655868	Entrepreneurs	-0.08448813
-4.655868	Environment	-0.08448813
-4.655868	Environmentalists	-0.08448812
-4.655868	Equally	-0.08448812
-4.655868	Establish	-0.08448812
-4.655868	Estimates	-0.08448813
-4.655868	Estimating	-0.08448814
-4.373839	Estonia	-0.3025371
-3.902009	Euro	-0.1339543
-4.655868	EuroAsian	-0.08448812
-4.655868	Eurobarometer	-0.08448813
-4.655868	Eurobonds	-0.08448813
-4.655868	Europa	-0.08448813
-2.748146	Europe	-0.2686634
-2.879121	European	-0.1930111
-4.655868	EuropeanMagazine	-0.08448812
-4.655868	Europeanlevel	-0.08448813
-3.61699	Europeans	-0.1135322
-3.647922	Europes	-0.1118667
-4.229971	Europewide	-0.08448813
-4.655868	Europhiles	-0.08448812
-4.229971	Euroskeptic	-0.2369436
-4.533962	Euroskepticism	-0.08448813
-4.655868	Euroskeptics	-0.08448813
-4.655868	Eurostat	-0.08448812
-4.373839	Eurozone	-0.1724184
-4.655868	Eva	-0.08448812
-4.655868	Even	-0.08448812
-4.655868	Eventually	-0.08448812
-4.655868	Ever	-0.08448813
-4.373839	Every	-0.08448812
-4.655868	Everyone	-0.08448812
-4.655868	Evidence	-0.08448814
-4.655868	Evo	-0.08448812
-4.533962	Exchange	-0.08448813
-4.655868	Excuses	-0.08448813
-4.655868	Expansion	-0.08448812
-4.655868	Expected	-0.08448812
-4.655868	Experts	-0.08448812
-4.655868	Explicit	-0.08448813
-4.655868	Exponents	-0.08448814
-4.655868	Exports	-0.08448812
-4.655868	External	-0.08448812
-4.655868	Extremadura	-0.08448812
-4.655868	Exxon	-0.08448813
-4.655868	Eyjafjallajkull	-0.08448812
-4.533962	F	-0.08448813
-4.533962	FCM	-0.08448812
-4.655868	FLORENCEANN	-0.08448812
-4.655868	FMCT	-0.08448813
-4.655868	FNV	-0.08448813
-4.655868	FRANCISCO	-0.08448812
-4.655868	FSB	-0.08448813
-3.963748	FT	-0.08448813
-4.655868	Facebook	-0.08448813
-4.655868	Faced	-0.08448812
-4.655868	Fahrenheit	-0.08448812
-4.655868	Fail	-0.08448813
-4.533962	Failed	-0.08448813
-4.655868	Failure	-0.08448812
-4.655868	Fair	-0.08448813
-4.655868	Faith	-0.08448814
-4.533962	Fallows	-0.08448813
-4.655868	Fans	-0.08448813
-4.655868	Farewell	-0.08448812
-4.533962	Farmers	-0.08448812
-4.655868	Farright	-0.08448813
-4.655868	Farther	-0.08448812
-4.655868	Father	-0.08448812
-4.655868	Fathers	-0.08448812
-4.655868	Fatih	-0.08448812
-4.655868	Faustian	-0.08448812
-4.655868	Fears	-0.08448813
-4.122087	February	-0.08448812
-4.533962	Fed	-0.08448813
-4.229971	Federal	-0.1350844
-4.533962	Federation	-0.08448812
-4.655868	Federica	-0.08448813
-4.655868	Feds	-0.08448812
-4.655868	Feldstein	-0.08448813
-4.533962	Felipe	-0.08448812
-4.655868	Fell	-0.08448813
-4.533962	Few	-0.08448812
-4.533962	Fiat	-0.08448812
-4.655868	Field	-0.08448812
-4.655868	Fifteen	-0.08448813
-4.655868	Fight	-0.08448812
-4.655868	Fighting	-0.08448813
-4.655868	Figo	-0.08448812
-4.655868	Figures	-0.08448814
-4.655868	Filipinos	-0.08448813
-4.655868	Fillon	-0.08448814
-4.655868	Finally	-0.08448812
-4.655868	Finance	-0.08448813
-4.533962	Financial	-0.08448813
-4.655868	Financing	-0.08448812
-4.655868	Finish	-0.08448813
-4.655868	Finland	-0.08448812
-4.655868	Finnish	-0.08448812
-4.655868	Finns	-0.08448813
-4.533962	First	-0.08448813
-4.533962	Fiscal	-0.08448813
-4.655868	Five	-0.08448813
-4.655868	Flags	-0.08448812
-4.655868	Flat	-0.08448813
-4.655868	Flemish	-0.08448813
-4.533962	Flight	-0.08448812
-4.655868	Flipkart	-0.08448813
-4.655868	Flock	-0.08448814
-4.655868	Florence	-0.08448813
-4.655868	Flower	-0.08448813
-4.655868	Focal	-0.08448812
-4.655868	Focusing	-0.08448814
-4.655868	Fogh	-0.08448812
-4.655868	Follow	-0.08448812
-4.655868	Following	-0.08448812
-4.533962	Food	-0.08448812
-4.533962	For	-0.09136517
-4.655868	Force	-0.08448813
-4.229971	Forces	-0.1487113
-4.655868	Forcing	-0.08448813
-4.655868	Ford	-0.08448813
-4.122087	Foreign	-0.08448813
-4.655868	Foremost	-0.08448812
-4.533962	Former	-0.08448813
-4.655868	Formulating	-0.08448812
-4.533962	Forrest	-0.08448813
-4.655868	Fortunately	-0.08448812
-4.533962	Forum	-0.08448812
-4.655868	Fossilfuel	-0.08448813
-4.655868	Foundation	-0.08448813
-4.533962	Founding	-0.224108
-4.655868	Four	-0.08448813
-4.533962	Fracking	-0.08448813
-4.655868	Framework	-0.08448813
-3.26724	France	-0.1858763
-4.655868	Frances	-0.08448812
-4.229971	Francis	-0.08448813
-4.533962	FrancoGerman	-0.08448813
-4.655868	Francois	-0.08448812
-4.655868	Frankel	-0.08448813
-4.655868	Frankfurt	-0.08448813
-4.373839	Franois	-0.1724184
-4.533962	Free	-0.08448812
-4.655868	Freedom	-0.08448812
-4.655868	Freemarket	-0.08448814
-4.655868	Freemasons	-0.08448812
-3.407819	French	-0.1374134
-4.655868	FrenchEnglish	-0.08448813
-4.655868	Frenchman	-0.08448812
-4.655868	Frequently	-0.08448813
-4.655868	Fresh	-0.08448812
-4.373839	Friedman	-0.1487113
-4.655868	Friendship	-0.08448812
-4.655868	From	-0.08448812
-4.533962	Front	-0.08448812
-4.655868	Fujimori	-0.08448813
-4.229971	Fukuda	-0.1487113
-4.373839	Fukushima	-0.08448813
-4.373839	Fukuyama	-0.08448812
-4.655868	Fulbright	-0.08448813
-4.533962	Full	-0.08448812
-4.229971	Fund	-0.1118667
-4.655868	Fundamental	-0.08448812
-4.655868	Fundamentalist	-0.08448812
-4.533962	Further	-0.08448813
-4.655868	Furthermore	-0.08448813
-4.533962	Future	-0.08448812
-3.963748	G	-0.1259677
-4.655868	GASP	-0.08448812
-4.655868	GATT	-0.08448813
-4.655868	GAZA	-0.08448813
-3.681227	GDP	-0.1443739
-4.655868	GFCRP	-0.08448812
-4.533962	GNP	-0.08448812
-4.655868	Gallup	-0.08448813
-4.655868	Gandhi	-0.08448813
-4.655868	Gap	-0.08448812
-4.655868	Gasp	-0.08448813
-3.847965	Gates	-0.1090499
-4.655868	Gaulle	-0.08448813
-4.655868	Gaullist	-0.08448812
-4.035741	Gaza	-0.1589905
-4.655868	Gazan	-0.08448812
-4.655868	Gazprom	-0.08448812
-3.847965	General	-0.1048586
-4.655868	Generational	-0.08448813
-4.655868	Generous	-0.08448813
-4.655868	Geneva	-0.08448813
-4.655868	Genome	-0.08448813
-4.655868	Genuine	-0.08448813
-3.963748	George	-0.1649754
-4.655868	Georgi	-0.08448812
-3.963748	Georgia	-0.08448812
-4.373839	Gerhard	-0.1487113
-3.511485	German	-0.128601
-4.655868	GermanSoviet	-0.08448812
-3.963748	Germans	-0.08448812
-3.355737	Germany	-0.1968243
-4.533962	Germanys	-0.08448812
-4.655868	Get	-0.08448813
-4.655868	Getting	-0.08448813
-4.655868	Geunhye	-0.08448814
-4.533962	Ghana	-0.08448812
-4.655868	Ghandi	-0.08448813
-4.655868	Giora	-0.08448812
-4.655868	Giovanni	-0.08448812
-4.655868	Girlfriend	-0.08448813
-4.655868	Given	-0.08448812
-4.655868	Gleb	-0.08448812
-3.902009	Global	-0.1032572
-4.655868	Glorious	-0.08448812
-4.655868	Goals	-0.08448813
-4.373839	God	-0.08448813
-4.655868	Gods	-0.08448812
-4.655868	Golan	-0.08448812
-4.655868	Gold	-0.08448812
-4.533962	Goldman	-0.224108
-4.655868	Gongadze	-0.08448812
-4.655868	Gonzlez	-0.08448813
-4.533962	Good	-0.08448813
-4.655868	Goodhart	-0.08448812
-4.533962	Google	-0.08448812
-4.655868	Gorbachev	-0.08448813
-4.655868	Gordon	-0.08448812
-4.533962	Government	-0.08448812
-4.655868	Governmental	-0.08448813
-4.655868	Governments	-0.08448813
-4.655868	Governor	-0.08448814
-4.655868	Gradually	-0.08448812
-4.655868	Grand	-0.08448812
-4.655868	Greason	-0.08448812
-4.122087	Great	-0.1350844
-4.655868	Greater	-0.08448812
-4.655868	Greco	-0.08448812
-3.467008	Greece	-0.1519621
-3.963748	Greek	-0.08448813
-4.122087	Greeks	-0.120017
-4.373839	Green	-0.1724184
-4.655868	Greenspans	-0.08448813
-4.373839	Group	-0.1724184
-4.533962	Growth	-0.08448814
-4.533962	Guantnamo	-0.08448813
-4.655868	Guard	-0.08448812
-4.655868	Guatemalan	-0.08448813
-4.655868	Guide	-0.08448812
-4.655868	Guido	-0.08448812
-4.655868	Gulag	-0.08448812
-4.533962	Gulf	-0.08448813
-4.655868	HAGUE	-0.08448813
-4.655868	HAVEN	-0.08448813
-4.655868	HIVAIDS	-0.08448813
-4.655868	HONG	-0.08448812
-4.655868	Hague	-0.08448812
-4.655868	Haifa	-0.08448813
-4.533962	Haiti	-0.08448814
-4.655868	Hall	-0.08448814
-4.229971	Hamas	-0.1350844
-4.655868	Hamilton	-0.08448813
-4.655868	Hannibal	-0.08448812
-4.655868	Hansen	-0.08448814
-4.533962	Harold	-0.08448813
-4.373839	Harvard	-0.1350844
-4.533962	Has	-0.224108
-4.655868	Have	-0.08448812
-4.655868	Having	-0.08448812
-4.655868	Hawks	-0.08448812
-4.655868	Hazare	-0.08448814
-4.655868	He	-0.08448813
-4.655868	Head	-0.08448812
-4.122087	Health	-0.08448813
-4.655868	Heathrow	-0.08448813
-4.655868	Hebrew	-0.08448813
-4.035741	Hedges	-0.08448813
-4.655868	Heights	-0.08448812
-4.655868	Heiligendamm	-0.08448813
-3.756643	Heller	-0.5442932
-4.655868	Helmets	-0.08448812
-4.655868	Helping	-0.08448813
-4.655868	Hence	-0.08448813
-4.373839	Henry	-0.08448812
-4.655868	Her	-0.08448812
-4.655868	Herbivorous	-0.08448812
-4.655868	Here	-0.08448813
-4.655868	Hereditary	-0.08448812
-4.655868	Heres	-0.08448812
-4.655868	Hernan	-0.08448812
-4.533962	Herzegovina	-0.08448813
-4.533962	Herzog	-0.08448813
-4.229971	Hezbollah	-0.08448813
-4.655868	Hiding	-0.08448813
-4.229971	High	-0.2369436
-4.655868	Higher	-0.08448812
-4.533962	Hillary	-0.224108
-4.655868	Himalayas	-0.08448813
-4.655868	Hindu	-0.08448813
-4.655868	Hiroshima	-0.08448813
-4.655868	His	-0.08448812
-4.655868	Historic	-0.08448813
-4.655868	Historically	-0.08448813
-4.655868	History	-0.08448813
-4.655868	HitlerStalin	-0.08448812
-4.655868	Hitlers	-0.08448812
-4.655868	Hogarthnbsp	-0.08448812
-4.655868	Hold	-0.08448812
-4.229971	Holland	-0.08448813
-4.533962	Hollande	-0.08448812
-4.655868	HollandeMichael	-0.08448812
-4.533962	Hollands	-0.08448812
-4.655868	Holocaust	-0.08448814
-4.655868	Holy	-0.08448813
-4.655868	Home	-0.08448812
-4.655868	Honni	-0.08448812
-4.655868	Horse	-0.08448812
-4.655868	Hottest	-0.08448812
-4.655868	Hours	-0.08448812
-4.533962	House	-0.08448812
-4.655868	Households	-0.08448813
-4.373839	How	-0.08448813
-4.655868	However	-0.08448813
-4.122087	Hu	-0.1262317
-4.655868	Huang	-0.08448813
-4.533962	Hugo	-0.224108
-4.655868	Humanity	-0.08448813
-4.655868	Humans	-0.08448812
-4.655868	Hume	-0.08448812
-4.655868	Hundreds	-0.08448814
-4.373839	Hungary	-0.08448812
-4.373839	Hunger	-0.1724184
-4.655868	Hussein	-0.08448812
-4.655868	Husseins	-0.08448813
-4.655868	Hyman	-0.08448812
-2.832571	I	-0.2145179
-4.373839	IAEA	-0.08448814
-4.533962	ICBMs	-0.224108
-4.533962	ICES	-0.08448813
-4.533962	ID	-0.08448813
-4.655868	IFAD	-0.08448814
-4.533962	II	-0.1175558
-4.533962	IMF	-0.08448812
-4.533962	INET	-0.08448813
-4.655868	INF	-0.08448812
-4.655868	IRA	-0.08448813
-4.655868	IRELAND	-0.08448813
-4.373839	IT	-0.08448812
-4.655868	ITHACA	-0.08448813
-4.229971	Iceland	-0.08448813
-4.655868	Ideas	-0.08448812
-4.655868	Ideological	-0.08448812
-4.655868	Idol	-0.08448813
-4.373839	Ie	-0.1724184
-4.373839	If	-0.09876744
-4.655868	Ilan	-0.08448813
-4.655868	Illuminati	-0.08448812
-4.533962	Im	-0.08448812
-4.655868	Imagine	-0.08448812
-4.655868	Imbalances	-0.08448812
-4.655868	Immense	-0.08448812
-4.655868	Immunizations	-0.08448813
-4.655868	Importantly	-0.08448812
-4.655868	Improved	-0.08448813
-4.655868	Improvement	-0.08448812
-3.963748	In	-0.09171189
-4.655868	Incio	-0.08448812
-4.655868	Increasing	-0.08448812
-4.655868	Indeed	-0.08448813
-4.533962	Independence	-0.08448814
-3.407819	India	-0.1728754
-3.756643	Indian	-0.08448812
-4.229971	Indians	-0.08448814
-4.655868	Individuals	-0.08448813
-4.373839	Indonesia	-0.08448814
-4.655868	Indonesians	-0.08448812
-4.373839	Industry	-0.08448812
-4.655868	Inevitably	-0.08448813
-4.655868	Information	-0.08448813
-4.655868	Instead	-0.08448812
-4.122087	Institute	-0.1350844
-4.655868	Institutes	-0.08448814
-4.655868	InstitutionBuilding	-0.08448812
-4.655868	Institutional	-0.08448812
-4.533962	Institutions	-0.08448814
-4.655868	Instructors	-0.08448813
-4.655868	Instruments	-0.08448812
-4.655868	Integrated	-0.08448813
-4.655868	Intel	-0.08448812
-4.655868	Intelligence	-0.08448813
-4.655868	Intentional	-0.08448812
-4.655868	Intentions	-0.08448813
-4.655868	Inter	-0.08448812
-4.655868	Interdependence	-0.08448812
-4.373839	Intergovernmental	-0.3025371
-4.655868	Interior	-0.08448812
-4.655868	Interlocking	-0.08448813
-4.655868	IntermediateRange	-0.08448813
-4.035741	International	-0.1018893
-4.035741	Internet	-0.08448812
-4.655868	Interpreted	-0.08448814
-4.655868	Interstate	-0.08448813
-4.655868	Intervention	-0.08448814
-4.655868	Interviewed	-0.08448813
-4.655868	Invented	-0.08448813
-4.373839	Investment	-0.08448812
-3.446369	Iran	-0.1345322
-4.533962	Iranian	-0.08448813
-4.533962	Irans	-0.224108
-3.446369	Iraq	-0.151395
-4.035741	Iraqi	-0.1540601
-4.533962	Iraqis	-0.08448813
-4.373839	Iraqs	-0.08448813
-3.647922	Ireland	-0.1202028
-4.122087	Irish	-0.08448813
-4.655868	Iron	-0.08448812
-4.655868	Ironically	-0.08448813
-4.655868	Irrawaddy	-0.08448812
-4.533962	Is	-0.1154137
-4.229971	Islam	-0.08448812
-4.655868	Islamabad	-0.08448812
-3.681227	Islamic	-0.1259677
-4.373839	Islamism	-0.08448814
-4.035741	Islamist	-0.1262317
-4.122087	Islamists	-0.2018705
-4.655868	Island	-0.08448812
-4.655868	Ismael	-0.08448812
-4.655868	Isolationism	-0.08448813
-3.355737	Israel	-0.1830814
-3.561041	Israeli	-0.118531
-4.373839	Israelis	-0.08448813
-4.229971	Israels	-0.08448813
-4.655868	Issues	-0.08448812
-3.902009	It	-0.1133996
-3.799908	Italian	-0.1262317
-3.588115	Italy	-0.1279175
-4.655868	Its	-0.08448813
-4.655868	Ive	-0.08448812
-4.655868	J	-0.08448812
-4.655868	JERUSALEM	-0.08448813
-4.655868	JFK	-0.08448812
-4.655868	JOSE	-0.08448813
-4.533962	Jabalia	-0.08448812
-4.655868	Jabotinsky	-0.08448813
-4.655868	Jabotinskys	-0.08448812
-4.122087	Jacques	-0.2810518
-4.655868	Jailed	-0.08448812
-4.655868	Jamaica	-0.08448813
-4.229971	James	-0.1487113
-4.655868	Janata	-0.08448812
-4.655868	Janeiro	-0.08448814
-3.963748	January	-0.1154136
-4.655868	Janus	-0.08448813
-4.655868	Januslike	-0.08448813
-3.355737	Japan	-0.1581222
-4.122087	Japanese	-0.08448813
-4.655868	Jayant	-0.08448812
-4.533962	Jean	-0.08448813
-4.655868	JeanMarie	-0.08448813
-4.533962	Jeff	-0.08448812
-4.655868	Jefferson	-0.08448812
-4.533962	Jeffrey	-0.08448813
-4.655868	Jerusalem	-0.08448814
-4.229971	Jewish	-0.1724184
-4.373839	Jews	-0.08448812
-4.655868	Jiabao	-0.08448812
-4.533962	Jiang	-0.08448812
-4.655868	Jim	-0.08448812
-4.533962	Jimmy	-0.08448812
-4.655868	Jintao	-0.08448813
-4.655868	Joachim	-0.08448812
-4.655868	Job	-0.08448813
-4.655868	Johannesburg	-0.08448814
-4.122087	John	-0.1350844
-4.533962	Jones	-0.08448813
-4.655868	Jose	-0.08448812
-4.655868	Joseph	-0.08448812
-4.655868	Jospin	-0.08448812
-4.655868	Judea	-0.08448813
-4.655868	Judge	-0.08448813
-4.655868	Judges	-0.08448812
-4.655868	Julian	-0.08448813
-3.902009	July	-0.1067587
-4.373839	Juncker	-0.1724184
-4.122087	June	-0.1587135
-4.655868	Junichiro	-0.08448813
-4.655868	Juninho	-0.08448813
-4.533962	Jurez	-0.08448812
-4.655868	Just	-0.08448813
-4.229971	Justice	-0.1487113
-4.373839	KGB	-0.08448813
-4.655868	KGBstyle	-0.08448812
-4.655868	KONG	-0.08448812
-4.533962	Kagame	-0.08448814
-4.533962	Kai	-0.08448813
-4.655868	Kalingrads	-0.08448812
-4.373839	Kaliningrad	-0.08448813
-4.655868	Karlsruhe	-0.08448812
-4.533962	Kashmir	-0.08448813
-4.533962	Katherine	-0.08448813
-4.655868	Kathimerini	-0.08448814
-4.655868	Kazakhstan	-0.08448812
-4.655868	Keep	-0.08448813
-4.655868	Keeping	-0.08448812
-4.373839	Kenen	-0.08448813
-4.533962	Kennedy	-0.08448813
-4.373839	Kenneth	-0.1724184
-4.655868	Kenya	-0.08448813
-4.655868	Kevin	-0.08448813
-4.533962	Keynes	-0.08448813
-3.847965	Keynesian	-0.1090499
-4.655868	Khan	-0.08448812
-4.655868	Khans	-0.08448812
-4.655868	Kimoon	-0.08448813
-4.655868	Kindle	-0.08448812
-4.533962	King	-0.08448812
-4.655868	Kingdom	-0.08448813
-4.655868	Kissing	-0.08448813
-4.655868	Kissinger	-0.08448812
-4.655868	Kissingers	-0.08448812
-4.655868	Klerk	-0.08448813
-4.655868	Kling	-0.08448812
-4.655868	Kofi	-0.08448813
-4.229971	Koizumi	-0.08448814
-4.229971	Kok	-0.08448814
-4.655868	Koks	-0.08448812
-4.533962	Korea	-0.08448812
-4.373839	Korean	-0.08448813
-4.655868	Koreans	-0.08448812
-4.655868	Koreas	-0.08448812
-4.533962	Kosovar	-0.08448812
-4.533962	Kosovars	-0.08448813
-3.488677	Kosovo	-0.171927
-4.533962	Kostunica	-0.08448812
-4.655868	Kremlin	-0.08448813
-4.373839	Krugman	-0.08448814
-4.655868	Kubrick	-0.08448813
-3.681227	Kuchma	-0.1591198
-4.373839	Kuchmas	-0.08448812
-4.655868	Kurd	-0.08448812
-4.533962	Kurdish	-0.08448812
-4.533962	Kuwait	-0.08448813
-4.655868	Kyi	-0.08448813
-4.655868	Kyiv	-0.08448813
-4.533962	Kyoto	-0.08448813
-4.655868	L	-0.08448812
-4.655868	LONDON	-0.08448813
-4.655868	LSchuknecht	-0.08448812
-4.655868	Labeling	-0.08448812
-4.229971	Labor	-0.08448812
-4.655868	Lacking	-0.08448812
-4.655868	Laden	-0.08448813
-4.655868	Lagarde	-0.08448812
-4.655868	Lagos	-0.08448813
-4.655868	Lampedusa	-0.08448812
-4.655868	Land	-0.08448814
-4.655868	Lanka	-0.08448814
-4.655868	Lankan	-0.08448813
-4.655868	Large	-0.08448813
-4.373839	Last	-0.1350844
-4.655868	Late	-0.08448814
-4.655868	Lately	-0.08448812
-4.655868	Later	-0.08448813
-3.324192	Latin	-0.895875
-4.533962	Latvia	-0.08448814
-4.655868	Laval	-0.08448813
-4.655868	Law	-0.08448812
-4.655868	Lawrence	-0.08448813
-4.533962	Le	-0.224108
-4.533962	League	-0.224108
-4.655868	Lear	-0.08448813
-4.373839	Lebanon	-0.08448813
-4.655868	Lech	-0.08448812
-4.373839	Lee	-0.08448813
-4.533962	Left	-0.08448813
-4.655868	Leftleaning	-0.08448813
-4.655868	Leftwing	-0.08448812
-4.655868	Legacy	-0.08448812
-4.655868	Legitimacy	-0.08448813
-4.655868	Lehman	-0.08448812
-4.655868	Leila	-0.08448812
-4.655868	Lenin	-0.08448813
-4.655868	Leon	-0.08448813
-4.533962	Leonid	-0.08448813
-4.655868	Less	-0.08448813
-4.373839	Let	-0.1540601
-4.655868	Liberal	-0.08448813
-4.655868	Liberation	-0.08448812
-4.655868	Liberty	-0.08448813
-3.847965	Libya	-0.1090499
-4.655868	Libyan	-0.08448812
-4.655868	Life	-0.08448814
-4.655868	Light	-0.08448814
-4.655868	Like	-0.08448813
-4.655868	Likewise	-0.08448813
-4.373839	Likud	-0.08448812
-4.655868	Limiting	-0.08448813
-4.533962	Lionel	-0.224108
-4.533962	Liquidity	-0.08448813
-4.655868	Lisbon	-0.08448812
-4.373839	Lithuania	-0.08448813
-4.655868	Little	-0.08448814
-3.647922	Liu	-0.1835725
-4.655868	Lloyd	-0.08448813
-4.655868	Loading	-0.08448813
-4.229971	London	-0.08448813
-4.655868	Longterm	-0.08448813
-4.655868	Longtime	-0.08448812
-4.373839	Look	-0.1724184
-4.655868	Looking	-0.08448813
-4.655868	Lost	-0.08448812
-4.533962	Louis	-0.08448812
-4.655868	Loved	-0.08448814
-4.655868	Low	-0.08448813
-4.655868	Lquila	-0.08448814
-4.655868	Lucas	-0.08448812
-4.655868	Luckily	-0.08448813
-4.655868	Luhansk	-0.08448813
-4.655868	Luis	-0.08448813
-4.655868	Luiz	-0.08448812
-4.035741	Lula	-0.08448813
-4.533962	Lulas	-0.08448813
-4.655868	Lunch	-0.08448812
-4.655868	Luther	-0.08448813
-4.533962	Luxembourg	-0.08448812
-4.655868	Luxor	-0.08448813
-4.373839	M	-0.08448812
-4.655868	MAD	-0.08448812
-4.655868	MADRID	-0.08448813
-4.655868	MAYNOOTH	-0.08448812
-4.655868	MEP	-0.08448812
-4.655868	MILAN	-0.08448813
-4.533962	MIT	-0.08448813
-4.655868	MOSCOW	-0.08448812
-4.533962	MPs	-0.08448812
-4.533962	MR	-0.08448812
-4.655868	MUNICH	-0.08448813
-4.655868	Ma	-0.08448813
-4.533962	Maastricht	-0.08448812
-4.655868	Macau	-0.08448812
-4.373839	Macedonia	-0.08448812
-4.655868	Madame	-0.08448812
-4.533962	Madoff	-0.08448813
-4.533962	Madrid	-0.08448813
-4.655868	Magnificent	-0.08448812
-4.655868	Mahal	-0.08448812
-4.655868	Mahmoud	-0.08448813
-4.533962	Main	-0.224108
-4.655868	Maintaining	-0.08448813
-4.655868	Maize	-0.08448813
-4.655868	Major	-0.08448812
-4.655868	Malaria	-0.08448813
-4.655868	Malays	-0.08448813
-4.533962	Maldives	-0.224108
-4.655868	Malraux	-0.08448812
-4.122087	Mandela	-0.1799693
-4.533962	Manicheanism	-0.224108
-4.655868	Manifesto	-0.08448812
-4.655868	Manish	-0.08448812
-4.533962	Manmohan	-0.224108
-4.655868	Mantega	-0.08448813
-4.373839	Many	-0.09548067
-4.655868	Mao	-0.08448814
-4.035741	March	-0.08448813
-4.229971	Margaret	-0.4274759
-4.533962	Marginal	-0.224108
-4.655868	Marine	-0.08448813
-4.373839	Mark	-0.08448812
-4.533962	Market	-0.08448813
-4.655868	Markets	-0.08448812
-4.655868	Marshall	-0.08448812
-4.229971	Martin	-0.1487113
-4.655868	Martine	-0.08448812
-4.533962	Marxism	-0.08448812
-4.655868	Marxist	-0.08448813
-4.655868	Marxists	-0.08448812
-4.533962	Massachusetts	-0.08448813
-4.655868	Massive	-0.08448813
-4.655868	Masters	-0.08448814
-4.655868	Mathaai	-0.08448813
-4.655868	Maurice	-0.08448812
-3.681227	May	-0.1441946
-4.655868	Maybe	-0.08448813
-4.655868	Maynard	-0.08448813
-4.533962	Mbeki	-0.08448813
-4.655868	McCain	-0.08448813
-4.655868	McCarthyite	-0.08448812
-4.533962	Meade	-0.224108
-4.655868	Meanwhile	-0.08448813
-4.373839	Mechanism	-0.08448813
-4.655868	Media	-0.08448814
-4.533962	Medicaid	-0.08448812
-4.373839	Medicare	-0.1724184
-4.655868	Medicine	-0.08448813
-4.035741	Mediterranean	-0.1774377
-4.035741	Medvedev	-0.08448812
-4.655868	Meet	-0.08448813
-4.655868	Meeting	-0.08448812
-4.655868	Mehta	-0.08448813
-4.655868	Members	-0.08448814
-4.655868	Men	-0.08448813
-4.655868	Menachem	-0.08448813
-4.533962	Mercosur	-0.1724184
-4.373839	Merkel	-0.08448813
-4.655868	Merkle	-0.08448812
-4.655868	Metropolitan	-0.08448812
-4.122087	Mexican	-0.08448813
-3.756643	Mexico	-0.09876744
-4.655868	Michael	-0.08448812
-4.655868	Michalis	-0.08448812
-4.655868	Michel	-0.08448813
-4.655868	Microcredits	-0.08448812
-4.655868	Microsoft	-0.08448812
-4.373839	Middle	-0.3025371
-4.655868	Mideast	-0.08448813
-4.533962	Mikhail	-0.224108
-4.533962	Milan	-0.08448813
-4.655868	Military	-0.08448813
-4.533962	Mill	-0.08448812
-4.122087	Millennium	-0.2081087
-4.122087	Milosevic	-0.08448814
-4.533962	Milton	-0.224108
-4.655868	Mines	-0.08448813
-4.229971	Minister	-0.08448814
-4.533962	Ministers	-0.08448813
-4.655868	Minsky	-0.08448813
-4.655868	Minskyite	-0.08448812
-4.655868	Mirrors	-0.08448812
-4.655868	Mistaking	-0.08448812
-4.655868	Mitterand	-0.08448813
-4.533962	Mitterrand	-0.08448813
-4.533962	Mladic	-0.08448812
-4.655868	Moderation	-0.08448812
-4.655868	Modi	-0.08448813
-4.655868	Modis	-0.08448812
-4.229971	Mogherini	-0.08448813
-4.655868	Mohamed	-0.08448813
-4.373839	Moldova	-0.08448813
-4.655868	Moment	-0.08448812
-4.655868	Monetary	-0.08448813
-4.655868	Monitor	-0.08448812
-4.533962	Monnet	-0.08448813
-4.533962	Montana	-0.08448813
-4.122087	Montenegro	-0.1262317
-4.533962	Monterrey	-0.08448813
-4.655868	Morales	-0.08448813
-4.655868	More	-0.08448812
-4.655868	Moreover	-0.08448813
-4.229971	Moscow	-0.120017
-4.533962	Most	-0.09876744
-4.655868	Mother	-0.08448812
-4.533962	Motors	-0.08448812
-4.655868	Mountains	-0.08448814
-4.533962	Movement	-0.08448813
-4.655868	Ms	-0.08448813
-4.122087	Mt	-0.1350844
-4.655868	Muammar	-0.08448812
-4.655868	Much	-0.08448813
-4.655868	Mugabe	-0.08448813
-4.122087	Mundell	-0.08448813
-4.655868	Murillo	-0.08448812
-4.655868	Musk	-0.08448812
-3.963748	Muslim	-0.1090499
-4.533962	Muslims	-0.08448812
-4.533962	My	-0.08448813
-4.655868	Myanmar	-0.08448813
-4.655868	Myitsone	-0.08448812
-4.655868	Myungbak	-0.08448812
-4.655868	NACCIMA	-0.08448813
-4.655868	NAFTHE	-0.08448813
-4.533962	NATFHE	-0.08448813
-3.488677	NATO	-0.1878873
-4.655868	NATOenlargement	-0.08448812
-4.655868	NATOled	-0.08448813
-4.373839	NATOs	-0.1487113
-4.655868	NDAA	-0.08448813
-4.655868	NETHERLANDS	-0.08448812
-4.655868	NEW	-0.08448812
-4.655868	NIO	-0.08448812
-4.373839	NLD	-0.08448814
-4.533962	NPT	-0.1410881
-4.533962	Namibia	-0.08448813
-4.655868	Napoleon	-0.08448813
-4.655868	Narendra	-0.08448812
-4.655868	Narratives	-0.08448812
-3.756643	National	-0.08448812
-4.655868	NationalReligious	-0.08448812
-4.655868	Nationalism	-0.08448813
-4.655868	Nationalist	-0.08448813
-4.229971	Nations	-0.08448812
-4.655868	Nationsbacked	-0.08448812
-4.655868	Nature	-0.08448813
-4.655868	Navtej	-0.08448812
-4.035741	Nazi	-0.2469161
-4.655868	NaziSoviet	-0.08448812
-4.533962	Nazism	-0.224108
-4.655868	Nearly	-0.08448814
-4.655868	Needless	-0.08448812
-4.655868	Needs	-0.08448814
-4.655868	Negotiation	-0.08448813
-4.655868	Nehru	-0.08448812
-4.655868	Neighborhood	-0.08448813
-4.655868	Neither	-0.08448813
-4.533962	Nelson	-0.224108
-4.655868	Neoliberalism	-0.08448813
-4.655868	Neoliberals	-0.08448812
-4.229971	Netanyahu	-0.08448812
-4.533962	Netherlands	-0.08448813
-4.655868	Neuroscientists	-0.08448813
-4.655868	Never	-0.08448813
-4.655868	Nevertheless	-0.08448812
-4.655868	Neville	-0.08448812
-3.61699	New	-0.1912498
-4.655868	Newspapers	-0.08448814
-4.655868	Newtonian	-0.08448813
-4.373839	Next	-0.08448813
-4.655868	Nicaragua	-0.08448813
-4.655868	Nicholas	-0.08448813
-4.655868	Nicholson	-0.08448813
-4.373839	Nicolas	-0.3025371
-4.655868	Nigeria	-0.08448812
-4.533962	Nigerian	-0.08448812
-4.655868	Nixon	-0.08448813
-4.533962	No	-0.08448813
-4.655868	Noam	-0.08448812
-3.963748	Nobel	-0.1627797
-4.533962	NonProliferation	-0.224108
-4.655868	None	-0.08448814
-4.655868	Nonetheless	-0.08448813
-4.655868	Nor	-0.08448813
-4.655868	Normandy	-0.08448813
-3.847965	North	-0.2628675
-4.655868	Northeast	-0.08448813
-4.533962	Northern	-0.08448813
-4.373839	Not	-0.08448812
-4.655868	Nothing	-0.08448812
-4.655868	Nouriel	-0.08448812
-4.122087	November	-0.1262317
-4.533962	Now	-0.08448813
-4.533962	Nowadays	-0.08448813
-3.963748	Nuclear	-0.08448813
-4.655868	NuclearTestBan	-0.08448812
-4.655868	Numerous	-0.08448812
-4.655868	Nunn	-0.08448813
-4.655868	OBrien	-0.08448814
-4.655868	OSCE	-0.08448812
-4.655868	OXFORD	-0.08448813
-3.588115	Obama	-0.1271234
-4.655868	Obamas	-0.08448813
-4.373839	Obstfeld	-0.08448812
-4.655868	Obviously	-0.08448813
-4.533962	Occupy	-0.08448812
-4.655868	Ocean	-0.08448812
-4.035741	October	-0.08448813
-4.655868	Odyssey	-0.08448812
-4.655868	Of	-0.08448812
-4.655868	Office	-0.08448813
-4.655868	Officially	-0.08448813
-4.655868	Officials	-0.08448813
-4.655868	Oil	-0.08448812
-4.533962	Old	-0.08448813
-4.655868	Older	-0.08448813
-4.655868	Oman	-0.08448812
-4.229971	On	-0.1018893
-4.655868	Once	-0.08448813
-4.229971	One	-0.08448812
-4.373839	Only	-0.1032572
-4.655868	Openended	-0.08448812
-4.655868	Opening	-0.08448812
-4.655868	Operandi	-0.08448812
-4.655868	Opinion	-0.08448812
-4.655868	Opportunity	-0.08448812
-4.655868	Optimists	-0.08448812
-4.655868	Optimizing	-0.08448813
-4.655868	Optimum	-0.08448813
-4.655868	Option	-0.08448812
-4.655868	Or	-0.08448812
-4.533962	Orange	-0.08448812
-4.655868	Orbn	-0.08448814
-4.533962	Oregon	-0.08448812
-4.373839	Organization	-0.08448813
-4.655868	Origin	-0.08448813
-4.373839	Osama	-0.1724184
-4.655868	Oslo	-0.08448812
-4.655868	Ossetia	-0.08448813
-4.655868	Ostpolitik	-0.08448814
-4.655868	Other	-0.08448813
-4.533962	Others	-0.08448813
-4.655868	Otherwise	-0.08448813
-4.373839	Ottoman	-0.08448814
-4.655868	Our	-0.08448813
-4.655868	Out	-0.08448814
-4.655868	Outrage	-0.08448813
-4.655868	Outside	-0.08448812
-4.655868	Over	-0.08448814
-4.655868	Overall	-0.08448812
-4.655868	Overstretched	-0.08448812
-4.655868	Own	-0.08448812
-4.655868	P	-0.08448812
-4.655868	PARIS	-0.08448813
-4.655868	PC	-0.08448813
-4.229971	PCA	-0.08448813
-4.655868	PHD	-0.08448813
-4.655868	PRAGUE	-0.08448812
-4.655868	PRI	-0.08448813
-4.655868	PRINCETON	-0.08448813
-4.655868	PSI	-0.08448813
-4.655868	Pacific	-0.08448812
-4.533962	Pact	-0.08448813
-3.963748	Pakistan	-0.08448813
-4.655868	Pakistanbased	-0.08448814
-4.655868	Pakistani	-0.08448812
-4.655868	Pakistanis	-0.08448812
-4.655868	Pakistans	-0.08448813
-4.655868	Palace	-0.08448813
-4.373839	Palestine	-0.08448812
-3.681227	Palestinian	-0.1140426
-4.533962	Palestinians	-0.1262317
-4.655868	Palin	-0.08448812
-4.655868	Panel	-0.08448814
-4.533962	Panetta	-0.08448812
-4.655868	Panglossian	-0.08448814
-3.847965	Papademos	-0.1410881
-4.655868	Papandreou	-0.08448813
-4.655868	Paper	-0.08448814
-4.655868	Paradoxically	-0.08448812
-4.533962	Paris	-0.08448813
-3.647922	Park	-0.1591198
-4.373839	Parliament	-0.1154137
-4.655868	Parliamentarian	-0.08448812
-4.533962	Parliaments	-0.08448812
-4.655868	Part	-0.08448814
-4.655868	Participation	-0.08448813
-4.655868	Partner	-0.08448813
-3.847965	Partnership	-0.1007073
-4.655868	Partnerships	-0.08448814
-3.847965	Party	-0.1154136
-4.655868	Partyfounded	-0.08448813
-4.655868	Paso	-0.08448812
-4.655868	Pasqua	-0.08448813
-4.533962	Passage	-0.08448812
-4.655868	Path	-0.08448812
-4.533962	Patriot	-0.224108
-4.229971	Paul	-0.1487113
-4.655868	Pavlov	-0.08448813
-4.655868	Pavlovsky	-0.08448812
-4.655868	Pax	-0.08448812
-4.655868	PayPal	-0.08448813
-4.373839	Peace	-0.1724184
-4.655868	Pearls	-0.08448814
-4.655868	Peasant	-0.08448813
-4.655868	Pedro	-0.08448812
-4.655868	Pen	-0.08448813
-4.655868	Pennsylvania	-0.08448813
-4.655868	Pentagon	-0.08448813
-4.655868	People	-0.08448813
-4.655868	Peoples	-0.08448812
-4.655868	Peres	-0.08448812
-4.655868	Perhaps	-0.08448813
-4.655868	Peron	-0.08448812
-4.655868	Perry	-0.08448812
-4.655868	Persian	-0.08448813
-4.655868	Personal	-0.08448812
-4.655868	Personally	-0.08448814
-4.655868	Perspective	-0.08448812
-4.533962	Peru	-0.08448812
-4.655868	Peruvian	-0.08448812
-4.655868	Perverse	-0.08448812
-4.655868	Pessimism	-0.08448813
-4.655868	Peter	-0.08448812
-4.655868	Petra	-0.08448812
-4.655868	Philip	-0.08448812
-4.655868	Philippines	-0.08448813
-4.655868	Philippinesshould	-0.08448813
-4.655868	Phrases	-0.08448813
-4.655868	Piemontese	-0.08448812
-4.655868	Piketty	-0.08448813
-4.655868	Pilate	-0.08448813
-4.655868	Plan	-0.08448812
-4.655868	Planetary	-0.08448813
-4.655868	Plantype	-0.08448812
-4.655868	Plenty	-0.08448814
-4.655868	Point	-0.08448812
-3.535556	Poland	-0.1519621
-4.229971	Polands	-0.1487113
-4.655868	Pole	-0.08448813
-4.533962	Poles	-0.224108
-4.655868	Police	-0.08448812
-4.122087	Policy	-0.08448814
-4.655868	Policymakers	-0.08448812
-4.655868	Polish	-0.08448814
-4.655868	PolishSwedish	-0.08448812
-4.655868	Political	-0.08448813
-4.655868	Politicians	-0.08448812
-4.655868	PoliticiansMichael	-0.08448812
-4.655868	Polls	-0.08448814
-4.655868	Pollution	-0.08448813
-4.533962	Pontius	-0.224108
-4.533962	Ponzi	-0.224108
-4.533962	Poor	-0.08448813
-4.655868	Pope	-0.08448813
-3.963748	Portugal	-0.1419147
-4.533962	Portuguese	-0.08448812
-4.655868	Positioning	-0.08448812
-4.655868	Power	-0.08448812
-4.655868	Powers	-0.08448812
-4.655868	Pragmatic	-0.08448813
-4.533962	Prague	-0.08448812
-4.655868	Pratap	-0.08448812
-4.655868	Preaching	-0.08448813
-4.655868	Precedent	-0.08448812
-4.655868	Precedents	-0.08448813
-4.655868	Precisely	-0.08448812
-4.655868	Predictably	-0.08448813
-4.655868	Preliminary	-0.08448812
-4.533962	Premier	-0.08448813
-4.373839	Presidency	-0.08448812
-3.17179	President	-0.2194009
-4.655868	Presidential	-0.08448812
-4.655868	Pretty	-0.08448813
-4.655868	Previously	-0.08448812
-4.655868	Primary	-0.08448813
-3.61699	Prime	-0.8109748
-4.655868	Primer	-0.08448812
-4.655868	Prince	-0.08448813
-4.373839	Prize	-0.08448813
-4.655868	Problems	-0.08448813
-4.655868	Proceso	-0.08448813
-4.655868	Prodi	-0.08448813
-4.655868	Productivity	-0.08448812
-4.655868	Professor	-0.08448812
-4.655868	Program	-0.08448812
-4.655868	Programs	-0.08448813
-4.655868	Progress	-0.08448814
-4.655868	Prohibition	-0.08448812
-4.229971	Project	-0.08448813
-4.655868	PromosSebraeBID	-0.08448812
-4.655868	Proponents	-0.08448812
-4.655868	Proposed	-0.08448812
-4.655868	Prorokovic	-0.08448813
-4.655868	Prosperity	-0.08448812
-4.655868	Protectionist	-0.08448812
-4.655868	Protests	-0.08448812
-4.533962	Protocol	-0.08448813
-4.533962	Protocols	-0.224108
-4.655868	Provided	-0.08448813
-4.655868	Provinces	-0.08448812
-4.655868	Provisional	-0.08448813
-4.655868	Prussia	-0.08448814
-4.533962	Public	-0.08448813
-4.655868	Publicizing	-0.08448812
-4.655868	Publishing	-0.08448814
-3.355737	Putin	-0.1111036
-4.655868	Putting	-0.08448812
-4.655868	Pyrrhic	-0.08448812
-4.655868	Q	-0.08448812
-4.655868	Qaddafi	-0.08448813
-4.655868	Qaeda	-0.08448813
-4.655868	Qatar	-0.08448812
-4.655868	Queens	-0.08448813
-4.655868	Question	-0.08448812
-4.655868	Quiet	-0.08448814
-4.655868	Quite	-0.08448812
-4.655868	RBI	-0.08448812
-4.655868	Rafael	-0.08448812
-4.655868	Raghuram	-0.08448812
-4.655868	Rahul	-0.08448812
-4.655868	Raj	-0.08448812
-4.373839	Rajan	-0.08448812
-4.655868	Rajiv	-0.08448812
-4.533962	Ralph	-0.08448812
-4.655868	Ramanathan	-0.08448813
-4.655868	Ramesh	-0.08448813
-4.655868	RampD	-0.08448813
-4.655868	Rashomonlike	-0.08448812
-4.655868	Rasmussen	-0.08448812
-4.655868	Rate	-0.08448812
-4.655868	Rather	-0.08448813
-4.655868	Ratko	-0.08448813
-4.655868	Ray	-0.08448812
-4.655868	Reactor	-0.08448812
-4.655868	Read	-0.08448813
-4.655868	Readers	-0.08448813
-4.655868	Reading	-0.08448812
-3.963748	Reagan	-0.1806182
-4.655868	Reagans	-0.08448812
-4.655868	Real	-0.08448813
-4.655868	Realization	-0.08448814
-4.655868	Realizing	-0.08448812
-4.655868	Reason	-0.08448812
-4.655868	Recalling	-0.08448813
-4.655868	Recent	-0.08448813
-4.655868	Recently	-0.08448812
-4.373839	Recession	-0.08448813
-4.655868	Recognizing	-0.08448812
-4.655868	Recovery	-0.08448812
-4.655868	Red	-0.08448812
-4.655868	Reduce	-0.08448813
-4.655868	Reducing	-0.08448813
-4.655868	Reduction	-0.08448812
-4.655868	Reef	-0.08448814
-4.655868	Reefbased	-0.08448812
-4.655868	Reefs	-0.08448812
-4.655868	Reforestation	-0.08448813
-4.373839	Reform	-0.1724184
-4.655868	Reforming	-0.08448813
-4.655868	Regional	-0.08448813
-4.655868	Regulations	-0.08448813
-4.655868	Regulators	-0.08448813
-4.655868	Reich	-0.08448813
-4.533962	Reinhart	-0.224108
-4.533962	Relations	-0.08448812
-4.655868	Relentless	-0.08448812
-4.655868	Relocation	-0.08448813
-4.655868	Remember	-0.08448813
-4.655868	Renault	-0.08448812
-4.655868	Representative	-0.08448812
-4.122087	Republic	-0.08448812
-4.655868	Republican	-0.08448812
-4.373839	Republicans	-0.1724184
-4.655868	Research	-0.08448813
-4.655868	Researchers	-0.08448813
-4.533962	Reserve	-0.08448813
-4.655868	Resistance	-0.08448812
-4.655868	Resource	-0.08448812
-4.655868	Resources	-0.08448812
-4.655868	Response	-0.08448812
-4.655868	Rest	-0.08448813
-4.655868	Restored	-0.08448813
-4.533962	Review	-0.08448812
-4.655868	Revisionist	-0.08448812
-4.229971	Revolution	-0.08448813
-4.655868	Revolutionary	-0.08448812
-4.122087	Reykjavik	-0.08448813
-4.655868	Rhodes	-0.08448812
-4.655868	Ricardo	-0.08448812
-4.655868	Rice	-0.08448812
-4.533962	Right	-0.08448813
-4.655868	Rightly	-0.08448813
-4.655868	Rights	-0.08448813
-4.533962	Rio	-0.08448813
-4.655868	Rising	-0.08448813
-4.655868	Risks	-0.08448812
-4.655868	Rival	-0.08448813
-4.655868	River	-0.08448812
-4.373839	Robert	-0.08448812
-4.655868	Robinho	-0.08448813
-4.655868	Rogoff	-0.08448812
-4.373839	Roman	-0.08448812
-4.122087	Romania	-0.1350844
-4.655868	Romanian	-0.08448812
-4.655868	Romanias	-0.08448813
-4.655868	Romano	-0.08448812
-4.655868	Romans	-0.08448814
-4.655868	Rome	-0.08448812
-4.229971	Ronald	-0.2369436
-4.655868	Roosevelt	-0.08448813
-4.655868	Roubini	-0.08448813
-4.655868	Roughly	-0.08448814
-4.655868	Round	-0.08448812
-3.7173	Royal	-0.1018893
-4.533962	Rudd	-0.08448813
-4.655868	Ruffert	-0.08448813
-4.655868	Rumor	-0.08448813
-4.655868	Rumsfeld	-0.08448813
-4.655868	Rumsfelds	-0.08448813
-4.655868	Russell	-0.08448812
-3.121288	Russia	-0.2172195
-3.681227	Russian	-0.145065
-4.229971	Russians	-0.08448813
-4.655868	Russianspeaking	-0.08448813
-4.533962	Russias	-0.08448812
-4.655868	Rwanda	-0.08448813
-4.655868	S	-0.08448812
-4.655868	SA	-0.08448813
-4.655868	SABAs	-0.08448812
-4.655868	SAN	-0.08448812
-4.655868	SEOUL	-0.08448812
-4.655868	SINGAPORE	-0.08448813
-4.655868	SME	-0.08448812
-4.533962	SMEs	-0.08448812
-4.533962	START	-0.08448813
-4.655868	STOCKHOLM	-0.08448813
-4.655868	STOCKHOLMMADRID	-0.08448813
-4.655868	Sabbatical	-0.08448812
-4.655868	Sabharwal	-0.08448814
-4.655868	Sachin	-0.08448812
-4.533962	Sachs	-0.08448813
-4.533962	Saddam	-0.08448812
-4.533962	Saddams	-0.08448812
-4.655868	Sadly	-0.08448813
-4.655868	Safer	-0.08448813
-4.655868	Safety	-0.08448812
-4.655868	Salaries	-0.08448812
-4.655868	Salinas	-0.08448813
-4.655868	Salvador	-0.08448812
-4.655868	Sam	-0.08448812
-4.655868	Samaria	-0.08448812
-4.655868	SampP	-0.08448813
-4.533962	San	-0.08448813
-4.655868	Sanchez	-0.08448812
-4.533962	Sanders	-0.08448813
-4.533962	Sarah	-0.224108
-4.229971	Sarajevo	-0.08448812
-3.467008	Sarkozy	-0.1246986
-4.655868	Sarna	-0.08448813
-4.655868	Saud	-0.08448813
-4.122087	Saudi	-0.3338536
-4.655868	Scandinavia	-0.08448813
-4.655868	Scariest	-0.08448814
-4.655868	Scenario	-0.08448812
-4.655868	Schengen	-0.08448813
-4.655868	Schklenk	-0.08448812
-4.533962	Schmitt	-0.08448813
-4.655868	Scholars	-0.08448813
-4.373839	School	-0.1724184
-4.373839	Schrder	-0.08448813
-4.655868	Schrders	-0.08448812
-4.655868	Schroeder	-0.08448812
-4.655868	Schumpeter	-0.08448812
-4.655868	Schumpeterian	-0.08448812
-4.229971	Science	-0.1487113
-4.533962	Scientific	-0.08448812
-4.533962	Scientists	-0.08448812
-4.655868	Scotland	-0.08448813
-4.533962	Scots	-0.08448812
-4.373839	Sea	-0.1487113
-4.655868	Second	-0.08448812
-3.902009	Secretary	-0.1774377
-4.655868	Securities	-0.08448813
-4.035741	Security	-0.1905906
-4.655868	Sein	-0.08448813
-4.655868	Selfdetermination	-0.08448814
-4.655868	Selfexpression	-0.08448813
-4.655868	Seluk	-0.08448812
-4.655868	Sen	-0.08448812
-4.655868	Senate	-0.08448813
-4.533962	Senator	-0.08448812
-4.655868	Sensible	-0.08448813
-4.655868	Seoul	-0.08448812
-4.035741	September	-0.1067587
-4.229971	Serb	-0.08448813
-4.655868	Serbheld	-0.08448813
-3.647922	Serbia	-0.1546327
-4.373839	Serbian	-0.1350844
-4.229971	Serbs	-0.120017
-4.655868	Sergey	-0.08448812
-4.533962	Service	-0.08448814
-4.655868	Setting	-0.08448813
-4.655868	Several	-0.08448813
-4.533962	Sgolne	-0.224108
-4.533962	Sgt	-0.08448812
-4.655868	SgtCrowley	-0.08448813
-4.655868	Shadows	-0.08448812
-4.655868	Shakespearean	-0.08448812
-4.533962	Shamir	-0.08448812
-4.655868	Shared	-0.08448812
-4.229971	Sharon	-0.08448813
-3.963748	Sharons	-0.08448813
-4.655868	She	-0.08448813
-4.655868	Shifts	-0.08448813
-4.655868	Shii	-0.08448813
-4.655868	Shimon	-0.08448812
-4.655868	Shine	-0.08448813
-4.533962	Shinzo	-0.224108
-4.655868	Shiva	-0.08448813
-4.655868	Shocks	-0.08448813
-4.533962	Should	-0.08448812
-4.655868	Shrine	-0.08448813
-4.655868	Shultz	-0.08448813
-4.533962	Shuttleworth	-0.08448812
-4.655868	Siberia	-0.08448813
-4.655868	Sighs	-0.08448814
-4.655868	Silva	-0.08448813
-4.655868	Silvio	-0.08448813
-4.655868	Similar	-0.08448814
-4.655868	Similarly	-0.08448813
-4.655868	Similarlythe	-0.08448812
-4.533962	Simonyi	-0.08448812
-4.655868	Simply	-0.08448812
-4.655868	Sinaloa	-0.08448812
-4.655868	Since	-0.08448812
-4.655868	Singapore	-0.08448814
-4.655868	Singh	-0.08448813
-4.655868	Single	-0.08448813
-4.655868	Sinha	-0.08448813
-4.533962	SinoAmerican	-0.08448812
-4.655868	SinoJapanese	-0.08448813
-4.655868	Sir	-0.08448812
-4.655868	Sixteen	-0.08448813
-4.655868	Skeptics	-0.08448814
-4.655868	Slobodan	-0.08448813
-4.655868	Slovakia	-0.08448813
-4.655868	Slovaks	-0.08448812
-4.533962	Slovenia	-0.08448813
-4.533962	Small	-0.08448813
-4.655868	Snowden	-0.08448812
-4.229971	So	-0.09753938
-4.035741	Social	-0.1799693
-4.229971	Socialist	-0.08448813
-4.533962	Socialists	-0.08448812
-4.533962	Society	-0.08448813
-4.655868	Software	-0.08448813
-4.655868	Solar	-0.08448812
-4.655868	Solidarity	-0.08448813
-4.655868	Solution	-0.08448812
-4.533962	Somalia	-0.08448813
-4.655868	Some	-0.08448813
-4.655868	Somehow	-0.08448812
-4.655868	Something	-0.08448813
-4.655868	Sometimes	-0.08448813
-4.655868	Soon	-0.08448813
-4.655868	SotoMichael	-0.08448812
-4.655868	Source	-0.08448814
-3.535556	South	-0.3860751
-4.533962	Southeast	-0.08448813
-4.122087	Southern	-0.2694475
-3.902009	Soviet	-0.1623832
-4.655868	Sovietera	-0.08448812
-4.229971	Space	-0.2369436
-4.655868	SpaceX	-0.08448813
-3.446369	Spain	-0.1636757
-4.655868	Spains	-0.08448813
-4.035741	Spanish	-0.1090499
-4.655868	Special	-0.08448813
-4.655868	Specialization	-0.08448814
-4.655868	Spreads	-0.08448814
-4.533962	Spring	-0.08448813
-4.655868	Sputnik	-0.08448812
-4.655868	Square	-0.08448813
-4.655868	Sreberenica	-0.08448814
-4.229971	Srebrenica	-0.08448812
-4.229971	Sri	-0.2369436
-4.373839	Stability	-0.1350844
-4.655868	Staff	-0.08448812
-4.655868	Stagnation	-0.08448813
-4.373839	Stalin	-0.08448812
-4.533962	Stalinist	-0.08448813
-4.655868	Stalins	-0.08448813
-4.655868	Standard	-0.08448813
-4.655868	Stanley	-0.08448812
-4.655868	Star	-0.08448813
-4.655868	Starbatty	-0.08448812
-4.655868	Start	-0.08448812
-4.655868	Starting	-0.08448814
-4.373839	State	-0.08448813
-4.655868	Statecraft	-0.08448813
-4.533962	States	-0.09178548
-4.655868	StatesRussian	-0.08448813
-4.655868	Stay	-0.08448813
-4.655868	Stefano	-0.08448812
-4.655868	Step	-0.08448812
-4.655868	Stephens	-0.08448813
-4.533962	Stern	-0.08448813
-4.655868	Steven	-0.08448812
-4.655868	Still	-0.08448813
-4.655868	Stones	-0.08448812
-4.655868	Story	-0.08448812
-4.655868	Straits	-0.08448812
-4.655868	Stranded	-0.08448813
-4.373839	Strategic	-0.1724184
-4.533962	Strategy	-0.08448812
-4.655868	StraussKahn	-0.08448812
-4.655868	Stream	-0.08448814
-4.655868	Streeck	-0.08448812
-4.655868	Street	-0.08448813
-4.655868	String	-0.08448814
-4.655868	Strip	-0.08448813
-4.655868	Structure	-0.08448813
-4.655868	Stuart	-0.08448813
-4.655868	Students	-0.08448814
-4.655868	Studies	-0.08448813
-4.655868	Subsequently	-0.08448812
-4.655868	Success	-0.08448813
-4.655868	Such	-0.08448813
-4.655868	Sudan	-0.08448813
-4.655868	Suddenly	-0.08448813
-4.655868	Suggestions	-0.08448813
-4.533962	Summers	-0.08448812
-4.122087	Summit	-0.1350844
-4.533962	Sunday	-0.08448812
-4.655868	Sunni	-0.08448812
-4.655868	Sunniled	-0.08448814
-4.655868	Superficially	-0.08448812
-4.655868	Suppliers	-0.08448812
-4.655868	Suppose	-0.08448813
-4.533962	Supreme	-0.224108
-4.655868	Sure	-0.08448812
-4.655868	Surveys	-0.08448813
-4.655868	Sustainability	-0.08448812
-4.655868	Sustainable	-0.08448812
-3.847965	Suu	-0.7796584
-4.655868	Swaminathan	-0.08448813
-4.655868	Swans	-0.08448812
-4.655868	Swapping	-0.08448814
-4.655868	Swati	-0.08448812
-4.035741	Sweden	-0.08448813
-4.533962	Swedish	-0.1724184
-4.655868	Swiss	-0.08448812
-4.229971	Switzerland	-0.08448813
-4.655868	Syndicate	-0.08448813
-4.035741	Syria	-0.120017
-4.655868	Syrian	-0.08448812
-4.533962	Syrians	-0.08448813
-4.655868	Systems	-0.08448814
-4.229971	TARGET	-0.2369436
-4.655868	TB	-0.08448813
-4.655868	THE	-0.08448812
-4.655868	TOKYO	-0.08448813
-4.655868	TPP	-0.08448812
-4.122087	TTIP	-0.08448812
-4.373839	TV	-0.08448812
-4.655868	Table	-0.08448813
-4.655868	Tackling	-0.08448814
-4.533962	Taiwan	-0.08448813
-4.655868	Taj	-0.08448812
-4.655868	Takeo	-0.08448813
-4.655868	Taking	-0.08448814
-4.655868	Taliban	-0.08448813
-4.655868	Task	-0.08448812
-4.533962	Tata	-0.08448813
-4.655868	Tax	-0.08448812
-4.655868	Taxes	-0.08448813
-4.533962	Teachers	-0.08448812
-4.655868	Teamlease	-0.08448813
-4.655868	Ted	-0.08448813
-4.655868	Teenagers	-0.08448812
-4.655868	Temporary	-0.08448813
-4.533962	Ten	-0.08448813
-4.533962	Terrorism	-0.08448812
-4.655868	Terrorist	-0.08448813
-4.655868	Terrorists	-0.08448813
-4.655868	Test	-0.08448812
-4.373839	Texas	-0.1724184
-4.655868	Thabo	-0.08448813
-4.655868	Thank	-0.08448812
-4.655868	Thanks	-0.08448812
-4.533962	That	-0.08448813
-4.373839	Thatcher	-0.1262317
-4.655868	Thawte	-0.08448813
-3.407819	The	-0.09240229
-3.799908	Thein	-0.8254158
-4.655868	Their	-0.08448813
-4.655868	Then	-0.08448812
-4.655868	Theoretical	-0.08448812
-4.533962	Theory	-0.08448813
-4.655868	There	-0.08448813
-4.655868	Therefore	-0.08448813
-4.655868	Theresienstadt	-0.08448812
-4.655868	These	-0.08448814
-4.533962	They	-0.09280171
-4.655868	Theyre	-0.08448812
-4.655868	Thijs	-0.08448812
-4.655868	Think	-0.08448814
-4.533962	Thinking	-0.08448813
-4.533962	Third	-0.08448814
-4.122087	This	-0.09484497
-4.373839	Thomas	-0.08448812
-4.655868	Those	-0.08448813
-4.655868	Though	-0.08448814
-4.655868	Three	-0.08448813
-4.533962	Throughout	-0.08448813
-4.655868	Thus	-0.08448813
-4.655868	Tiananmen	-0.08448812
-4.533962	Time	-0.1724184
-4.655868	Times	-0.08448812
-4.655868	Titoinspired	-0.08448812
-4.373839	To	-0.08448812
-4.533962	Today	-0.08448813
-4.655868	Todays	-0.08448812
-4.655868	Together	-0.08448814
-4.655868	Tokyo	-0.08448813
-3.963748	Tony	-0.4155755
-4.655868	Too	-0.08448813
-4.655868	Towers	-0.08448813
-4.655868	Trabelsi	-0.08448813
-4.229971	Trade	-0.08448813
-4.655868	Traders	-0.08448814
-4.655868	TransPacific	-0.08448812
-4.655868	Transatlantic	-0.08448813
-4.655868	Transparency	-0.08448813
-4.655868	Transport	-0.08448813
-4.655868	Transportation	-0.08448813
-4.655868	Trap	-0.08448812
-4.655868	Treasury	-0.08448812
-4.655868	Treat	-0.08448812
-4.655868	Treaties	-0.08448813
-3.756643	Treaty	-0.13715
-4.533962	Treatys	-0.08448812
-4.533962	Tripathi	-0.08448813
-4.655868	Trojan	-0.08448812
-4.655868	Trotsky	-0.08448812
-4.655868	True	-0.08448814
-4.533962	Trust	-0.08448812
-4.655868	Truth	-0.08448813
-4.655868	Tucker	-0.08448813
-4.655868	Tunis	-0.08448812
-4.122087	Tunisia	-0.2326228
-4.655868	Tunisian	-0.08448812
-3.24134	Turkey	-0.2100945
-4.655868	Turkeya	-0.08448813
-3.847965	Turkeys	-0.08448812
-3.847965	Turkish	-0.1067587
-4.229971	Turks	-0.08448813
-4.655868	Tusk	-0.08448812
-4.655868	Tussaud	-0.08448812
-4.655868	Twelve	-0.08448813
-4.655868	TwentyFirst	-0.08448813
-4.533962	Twentyfive	-0.224108
-4.655868	Twin	-0.08448812
-4.533962	Two	-0.08448813
-4.229971	Tyler	-0.224108
-4.655868	UCLA	-0.08448812
-4.655868	UK	-0.08448813
-4.655868	UKIP	-0.08448814
-3.756643	UN	-0.1144434
-4.655868	UNFCC	-0.08448814
-4.655868	UNPROFOR	-0.08448814
-4.655868	UNcontrolled	-0.08448813
-4.655868	UNsponsored	-0.08448813
-3.076052	US	-0.1526646
-4.655868	USChina	-0.08448812
-4.655868	USJapan	-0.08448812
-4.655868	USRussia	-0.08448813
-4.533962	USRussian	-0.08448813
-4.533962	USSR	-0.08448814
-4.655868	USapproximately	-0.08448813
-4.533962	USled	-0.08448812
-4.655868	USlike	-0.08448814
-4.655868	Udo	-0.08448812
-3.446369	Ukraine	-0.1832899
-4.122087	Ukraines	-0.08448813
-4.533962	Ukrainian	-0.08448812
-4.373839	Ukrainians	-0.08448813
-4.655868	Ultimately	-0.08448814
-4.655868	Unable	-0.08448812
-4.655868	Uncoordinated	-0.08448813
-4.533962	Under	-0.08448813
-4.655868	Understanding	-0.08448812
-4.655868	Unfortunately	-0.08448813
-3.799908	Union	-0.1331177
-4.229971	Unions	-0.08448813
-4.655868	Unionwide	-0.08448813
-4.035741	United	-0.2231952
-4.655868	Universe	-0.08448812
-4.533962	Universities	-0.08448812
-4.229971	University	-0.08448813
-4.655868	Unless	-0.08448813
-4.655868	Unlike	-0.08448813
-4.655868	Unsavory	-0.08448813
-4.655868	Untested	-0.08448813
-4.655868	Until	-0.08448814
-4.655868	Upon	-0.08448813
-4.655868	Us	-0.08448812
-4.655868	Used	-0.08448812
-4.655868	Using	-0.08448812
-4.655868	Usually	-0.08448814
-4.655868	Uturn	-0.08448812
-4.035741	VAT	-0.1154137
-4.655868	VATpayrolltax	-0.08448812
-4.533962	VERs	-0.08448813
-4.655868	VIENNA	-0.08448813
-4.655868	VIX	-0.08448812
-4.655868	Vaccines	-0.08448813
-4.655868	Vaguely	-0.08448812
-4.655868	Valentine	-0.08448813
-4.655868	Velasquez	-0.08448812
-4.655868	Velvet	-0.08448813
-3.756643	Venezuela	-0.08448812
-4.655868	VeriSign	-0.08448813
-4.655868	Victor	-0.08448813
-4.533962	Vietnam	-0.08448813
-4.655868	Vietnamese	-0.08448812
-4.655868	Viewed	-0.08448813
-4.655868	Vigorous	-0.08448812
-4.655868	Viking	-0.08448812
-4.373839	Viktor	-0.08448812
-4.533962	Villepin	-0.08448812
-4.655868	Vilnius	-0.08448813
-4.655868	Visa	-0.08448813
-4.533962	Vladimir	-0.08448813
-4.533962	Vojislav	-0.224108
-4.655868	Vojvodina	-0.08448812
-4.655868	Volvo	-0.08448813
-4.655868	Voters	-0.08448814
-4.373839	Vshaped	-0.1724184
-4.533962	W	-0.08448813
-4.655868	WAGENINGEN	-0.08448812
-4.655868	WASHINGTON	-0.08448812
-4.533962	WHO	-0.08448812
-4.655868	WINDHOEK	-0.08448813
-4.655868	WWII	-0.08448813
-4.655868	Wahhabi	-0.08448813
-4.655868	Wait	-0.08448812
-4.655868	Waldo	-0.08448812
-4.655868	Walesa	-0.08448813
-4.655868	Walking	-0.08448812
-4.229971	Wall	-0.120017
-4.655868	Walloons	-0.08448813
-4.655868	Wangari	-0.08448812
-3.756643	War	-0.112955
-4.655868	Wargalla	-0.08448813
-4.655868	Warming	-0.08448812
-4.533962	Wars	-0.1724184
-4.655868	Was	-0.08448813
-3.963748	Washington	-0.1154137
-4.655868	Wasnt	-0.08448813
-4.655868	Wassenaar	-0.08448813
-4.655868	Wassenaarstyle	-0.08448812
-4.655868	Watching	-0.08448812
-4.533962	Way	-0.08448813
-4.229971	We	-0.09226052
-4.655868	Weak	-0.08448813
-4.533962	Weather	-0.08448812
-4.655868	Web	-0.08448813
-4.655868	Weimar	-0.08448813
-4.655868	Weizmann	-0.08448813
-4.655868	Well	-0.08448813
-4.655868	Wellmeaning	-0.08448814
-4.655868	Welsh	-0.08448814
-4.533962	Wen	-0.08448812
-4.655868	Were	-0.08448813
-3.963748	West	-0.12961
-3.647922	Western	-0.1118667
-4.655868	Westerners	-0.08448814
-4.533962	Westernstyle	-0.224108
-4.655868	Westminster	-0.08448812
-4.655868	Westparticularly	-0.08448812
-4.655868	Weve	-0.08448813
-4.229971	What	-0.08448814
-4.655868	Whatever	-0.08448813
-4.655868	Whats	-0.08448812
-4.655868	Wheat	-0.08448812
-4.229971	When	-0.08448813
-4.655868	Whereas	-0.08448812
-4.533962	Whether	-0.08448813
-4.655868	Which	-0.08448813
-4.655868	While	-0.08448813
-4.373839	White	-0.1724184
-4.655868	Whitney	-0.08448812
-4.533962	Who	-0.08448813
-4.655868	Wholesale	-0.08448812
-4.533962	Why	-0.08448813
-4.655868	WikiLeaks	-0.08448812
-4.533962	Will	-0.08448813
-4.533962	William	-0.08448812
-4.533962	Wilson	-0.08448813
-4.655868	Wim	-0.08448813
-4.655868	Windfall	-0.08448812
-4.655868	WingnbspIndeed	-0.08448812
-4.655868	Winston	-0.08448813
-4.229971	With	-0.09548067
-4.655868	Within	-0.08448813
-4.655868	Without	-0.08448813
-4.655868	Witness	-0.08448812
-4.229971	Wolf	-0.08448813
-4.655868	Wolfgang	-0.08448812
-4.533962	Women	-0.08448812
-4.655868	Woodstock	-0.08448812
-4.655868	Word	-0.08448812
-4.655868	Words	-0.08448814
-4.655868	Work	-0.08448814
-3.446369	World	-0.3023943
-4.533962	WorldCom	-0.08448813
-4.655868	Worldus	-0.08448813
-4.655868	Worse	-0.08448813
-4.655868	Would	-0.08448813
-4.655868	Wouldn	-0.08448812
-4.655868	Wouldnt	-0.08448812
-4.655868	Written	-0.08448812
-4.655868	XCOR	-0.08448812
-4.655868	Xiaobo	-0.08448813
-4.655868	Xiaoping	-0.08448813
-4.655868	Xilai	-0.08448813
-4.655868	YORK	-0.08448812
-4.533962	Yalta	-0.08448813
-4.655868	Yankee	-0.08448812
-4.533962	Yasukuni	-0.08448812
-4.655868	Yasuo	-0.08448813
-4.655868	Years	-0.08448814
-4.533962	Yeltsin	-0.08448812
-4.655868	Yemen	-0.08448812
-4.533962	Yes	-0.1262317
-4.655868	Yet	-0.08448813
-4.655868	Yitzhak	-0.08448813
-4.655868	York	-0.08448813
-4.655868	Yorker	-0.08448812
-4.655868	You	-0.08448813
-4.655868	Yugoslav	-0.08448812
-4.122087	Yugoslavia	-0.08448814
-4.655868	Yugoslavias	-0.08448812
-4.655868	Yuri	-0.08448812
-4.655868	Yushchenko	-0.08448813
-4.533962	Zagreb	-0.08448813
-4.655868	Zambada	-0.08448812
-4.533962	Zapatero	-0.08448813
-4.655868	Zealand	-0.08448813
-4.655868	Zemin	-0.08448812
-4.655868	Zero	-0.08448813
-4.533962	Zetas	-0.08448812
-4.655868	Zidane	-0.08448812
-4.655868	Zine	-0.08448813
-4.655868	Zion	-0.08448812
-4.655868	Zionism	-0.08448812
-4.655868	Zoellick	-0.08448813
-4.655868	Zurbaran	-0.08448812
-2.024975	a	-0.2441807
-4.655868	aagh	-0.08448814
-4.373839	abandon	-0.08448813
-4.373839	abandoned	-0.08448813
-4.655868	abandoning	-0.08448812
-4.655868	abductive	-0.08448812
-4.533962	abide	-0.224108
-4.655868	abiding	-0.08448813
-4.035741	ability	-0.4799816
-4.655868	ablaze	-0.08448812
-3.756643	able	-0.5479461
-4.533962	aboard	-0.08448812
-4.655868	abolition	-0.08448814
-4.533962	abound	-0.08448813
-2.72076	about	-0.3072335
-3.647922	above	-0.2813991
-3.756643	abroad	-0.2305427
-4.655868	abrogate	-0.08448813
-4.655868	abrogated	-0.08448813
-4.655868	abrupt	-0.08448813
-4.655868	absence	-0.08448814
-4.655868	absences	-0.08448813
-4.655868	absent	-0.08448812
-4.655868	absenteeism	-0.08448812
-3.963748	absolute	-0.120017
-4.373839	absolutely	-0.08448813
-4.533962	absorb	-0.08448813
-4.655868	absorbed	-0.08448813
-4.655868	absorber	-0.08448812
-4.655868	absorbs	-0.08448813
-4.655868	abstain	-0.08448813
-4.655868	abstractions	-0.08448812
-4.229971	absurd	-0.1350844
-4.533962	abundance	-0.224108
-4.655868	abundantly	-0.08448812
-4.655868	abuse	-0.08448812
-4.533962	abused	-0.08448813
-4.533962	abuses	-0.08448812
-4.655868	abyss	-0.08448812
-4.533962	academia	-0.08448812
-4.229971	academic	-0.08448813
-4.035741	academics	-0.1262317
-4.533962	accelerate	-0.08448813
-4.533962	accelerated	-0.08448812
-4.122087	accept	-0.08448812
-4.229971	acceptable	-0.2369436
-3.963748	acceptance	-0.3479986
-4.035741	accepted	-0.120017
-4.373839	accepting	-0.08448814
-4.655868	accepts	-0.08448812
-3.535556	access	-0.6570905
-4.533962	accessible	-0.08448813
-3.963748	accession	-0.1410881
-4.533962	accident	-0.08448813
-4.655868	accidental	-0.08448813
-4.655868	accidents	-0.08448813
-4.533962	accommodate	-0.08448814
-4.373839	accommodated	-0.08448813
-4.533962	accommodation	-0.08448813
-4.655868	accommodative	-0.08448813
-4.533962	accompanied	-0.224108
-4.655868	accompanying	-0.08448813
-4.533962	accomplish	-0.08448812
-4.655868	accordance	-0.08448812
-3.756643	according	-0.8668085
-4.533962	accordingly	-0.08448812
-4.655868	accords	-0.08448814
-3.799908	account	-0.2329064
-4.229971	accountability	-0.1487113
-4.229971	accountable	-0.08448813
-4.533962	accounted	-0.224108
-3.963748	accounting	-0.1587135
-4.035741	accounts	-0.1262317
-4.533962	accumulate	-0.08448814
-4.655868	accumulated	-0.08448813
-4.655868	accumulation	-0.08448814
-4.533962	accurate	-0.08448812
-4.533962	accurately	-0.08448813
-4.655868	accusation	-0.08448813
-4.533962	accuse	-0.08448813
-4.035741	accused	-0.2810517
-4.655868	accusing	-0.08448813
-4.655868	ace	-0.08448812
-4.122087	achieve	-0.08448814
-3.902009	achieved	-0.120017
-4.533962	achievement	-0.08448813
-4.533962	achievements	-0.08448813
-4.035741	achieving	-0.08448814
-4.229971	acknowledge	-0.1487113
-4.655868	acknowledged	-0.08448812
-4.533962	acknowledging	-0.08448813
-4.655868	acquiesced	-0.08448814
-4.533962	acquire	-0.08448813
-4.655868	acquired	-0.08448813
-4.655868	acquisitions	-0.08448813
-4.655868	acre	-0.08448813
-4.655868	acres	-0.08448813
-4.533962	acronym	-0.08448813
-3.535556	across	-0.3186324
-4.655868	acrosstheboard	-0.08448812
-3.681227	act	-0.1496442
-4.655868	acted	-0.08448812
-4.122087	acting	-0.08448813
-3.488677	action	-0.2513393
-4.035741	actions	-0.1587135
-4.373839	active	-0.08448813
-4.655868	actively	-0.08448813
-4.655868	activism	-0.08448813
-4.229971	activists	-0.08448813
-3.902009	activities	-0.1154136
-4.122087	activity	-0.1410881
-4.655868	activitys	-0.08448813
-4.229971	actors	-0.08448812
-4.655868	actress	-0.08448812
-4.035741	acts	-0.1649754
-4.373839	actual	-0.08448812
-3.7173	actually	-0.1032572
-4.655868	actvities	-0.08448812
-4.373839	adapt	-0.1724184
-4.655868	adaptable	-0.08448812
-4.229971	adaptation	-0.08448812
-4.533962	adaptations	-0.224108
-4.655868	adapted	-0.08448814
-4.655868	adaptive	-0.08448813
-4.533962	add	-0.08448814
-4.373839	added	-0.08448812
-4.655868	addiction	-0.08448812
-4.373839	addition	-0.1262317
-3.799908	additional	-0.08448812
-4.035741	address	-0.1018893
-4.533962	addressed	-0.08448814
-4.122087	addressing	-0.2018705
-4.655868	adds	-0.08448812
-4.655868	adequate	-0.08448813
-4.655868	adequately	-0.08448812
-4.533962	adhere	-0.224108
-4.655868	adhered	-0.08448812
-4.655868	adherence	-0.08448812
-4.655868	adherents	-0.08448814
-4.655868	adical	-0.08448813
-4.533962	adjacent	-0.08448813
-4.655868	adjudicate	-0.08448812
-4.533962	adjust	-0.1724184
-4.533962	adjusted	-0.08448813
-4.533962	adjusting	-0.08448812
-4.229971	adjustment	-0.1487113
-4.533962	adjustments	-0.08448813
-4.655868	administer	-0.08448813
-4.655868	administered	-0.08448813
-3.902009	administration	-0.08448814
-4.533962	administrations	-0.08448812
-4.533962	administrative	-0.08448812
-4.373839	admiration	-0.1724184
-4.655868	admirer	-0.08448814
-4.229971	admission	-0.2369436
-4.373839	admit	-0.1487113
-4.035741	admitted	-0.1724184
-4.655868	admittedly	-0.08448813
-4.373839	admitting	-0.1724184
-4.533962	adopt	-0.08448813
-3.902009	adopted	-0.1540601
-4.655868	adopting	-0.08448812
-4.373839	adoption	-0.1487113
-4.655868	adoptions	-0.08448813
-4.655868	adorns	-0.08448812
-4.655868	adulation	-0.08448813
-4.229971	advance	-0.08448813
-3.561041	advanced	-0.4912339
-4.655868	advancement	-0.08448813
-4.655868	advances	-0.08448814
-4.122087	advancing	-0.08448812
-4.035741	advantage	-0.2326228
-4.655868	advantageous	-0.08448812
-4.655868	advantages	-0.08448814
-4.533962	advent	-0.224108
-4.655868	adventure	-0.08448814
-4.655868	adventures	-0.08448812
-4.655868	adversaries	-0.08448812
-4.122087	adverse	-0.08448813
-4.655868	adversely	-0.08448812
-4.655868	adversity	-0.08448812
-4.655868	advertisement	-0.08448814
-4.655868	advice	-0.08448812
-4.655868	advised	-0.08448813
-4.655868	advising	-0.08448813
-4.229971	advisory	-0.08448813
-4.655868	advocacy	-0.08448814
-4.373839	advocate	-0.08448814
-4.533962	advocated	-0.08448812
-4.655868	advocates	-0.08448812
-4.655868	advocating	-0.08448812
-4.533962	afety	-0.08448812
-4.122087	affair	-0.08448812
-4.035741	affairs	-0.1410881
-3.902009	affect	-0.1457562
-3.847965	affected	-0.2052127
-4.655868	affecting	-0.08448812
-4.122087	affects	-0.1350844
-4.533962	affidavit	-0.08448813
-4.655868	affidavits	-0.08448814
-4.655868	affirmative	-0.08448813
-4.533962	affirming	-0.08448813
-4.655868	afflict	-0.08448813
-4.533962	affluent	-0.08448814
-4.035741	afford	-0.2741199
-4.655868	affordability	-0.08448814
-4.533962	afraid	-0.08448813
-3.059199	after	-0.2840598
-4.655868	afterlife	-0.08448812
-4.533962	aftermath	-0.224108
-4.533962	afternoon	-0.08448814
-3.511485	again	-0.1876072
-2.983539	against	-0.2136194
-3.902009	age	-0.1671949
-4.533962	aged	-0.08448813
-3.902009	agencies	-0.1090499
-4.533962	agency	-0.08448813
-3.488677	agenda	-0.2617509
-4.655868	agendaincluding	-0.08448812
-4.655868	agendas	-0.08448813
-4.655868	agent	-0.08448813
-4.533962	agents	-0.08448812
-4.655868	ageold	-0.08448813
-4.533962	ages	-0.08448813
-4.229971	aggregate	-0.1487113
-4.229971	aggression	-0.08448813
-4.533962	aggressive	-0.08448813
-4.655868	aggressively	-0.08448813
-4.122087	aging	-0.08448813
-4.655868	agitated	-0.08448813
-3.902009	ago	-0.1553151
-4.655868	agonizing	-0.08448813
-4.655868	agrarian	-0.08448813
-3.799908	agree	-0.2661746
-3.799908	agreed	-0.2231952
-4.533962	agreeing	-0.224108
-3.446369	agreement	-0.1985635
-3.7173	agreements	-0.1466633
-4.229971	agrees	-0.1487113
-4.533962	agribusiness	-0.08448812
-4.122087	agricultural	-0.1262317
-3.799908	agriculture	-0.1228743
-3.847965	ahead	-0.2061858
-3.647922	aid	-0.08448813
-4.655868	aided	-0.08448813
-4.655868	aids	-0.08448812
-3.799908	aim	-0.257371
-3.7173	aimed	-0.5820817
-4.373839	aims	-0.08448812
-3.681227	air	-0.1827092
-4.373839	aircraft	-0.08448813
-4.655868	airlines	-0.08448814
-4.533962	airplane	-0.08448812
-4.533962	airport	-0.08448813
-4.533962	airports	-0.08448813
-4.655868	airstrikes	-0.08448814
-4.655868	akin	-0.08448812
-4.655868	alAssad	-0.08448812
-4.373839	alQaeda	-0.08448813
-4.655868	alarmed	-0.08448812
-4.533962	alarming	-0.08448813
-4.373839	alarmingly	-0.08448812
-4.655868	alarms	-0.08448812
-4.655868	albeit	-0.08448813
-4.533962	alchemists	-0.08448813
-4.655868	alchemy	-0.08448814
-4.655868	alestine	-0.08448813
-4.655868	alia	-0.08448814
-4.533962	alienation	-0.08448813
-4.655868	align	-0.08448812
-4.655868	alike	-0.08448812
-4.655868	alive	-0.08448812
-2.84754	all	-0.2206188
-4.655868	allbutinevitable	-0.08448813
-4.533962	alleged	-0.08448812
-4.533962	allegedly	-0.08448813
-4.655868	allergy	-0.08448812
-4.533962	alleviating	-0.08448813
-4.122087	alliance	-0.3338536
-4.373839	alliances	-0.08448813
-4.533962	allied	-0.08448812
-4.035741	allies	-0.08448813
-4.533962	allocated	-0.08448814
-4.533962	allocation	-0.224108
-4.533962	allout	-0.08448812
-3.7173	allow	-0.128481
-4.122087	allowed	-0.08448813
-4.035741	allowing	-0.08448813
-4.122087	allows	-0.08448813
-4.655868	allpowerful	-0.08448812
-4.655868	alltime	-0.08448812
-4.655868	alltooreal	-0.08448813
-4.655868	allure	-0.08448814
-4.533962	ally	-0.08448813
-4.655868	allywhile	-0.08448813
-4.655868	almighty	-0.08448812
-3.355737	almost	-0.126121
-3.799908	alone	-0.1717429
-3.902009	along	-0.2229673
-4.229971	alongside	-0.08448813
-3.339678	already	-0.0979617
-4.655868	alse	-0.08448813
-3.004886	also	-0.1454603
-4.655868	alter	-0.08448812
-4.655868	altered	-0.08448813
-4.655868	alternation	-0.08448814
-3.7173	alternative	-0.2040161
-3.963748	alternatives	-0.2369436
-3.799908	although	-0.08448813
-4.533962	altogether	-0.224108
-4.655868	altruism	-0.08448813
-3.511485	always	-0.114464
-4.122087	am	-0.08448813
-4.655868	amJames	-0.08448813
-4.655868	amalgam	-0.08448814
-4.655868	amateur	-0.08448812
-4.533962	amazing	-0.08448813
-4.655868	ambiguities	-0.08448813
-4.533962	ambiguous	-0.08448812
-4.533962	ambition	-0.08448814
-4.373839	ambitions	-0.08448814
-4.035741	ambitious	-0.1262317
-4.655868	ambivalence	-0.08448812
-4.655868	ambivalent	-0.08448813
-4.655868	amenable	-0.08448813
-4.533962	amending	-0.08448812
-4.655868	amendment	-0.08448812
-4.655868	amendments	-0.08448812
-4.533962	amid	-0.08448812
-4.655868	amiss	-0.08448813
-4.655868	ammunition	-0.08448812
-3.216898	among	-0.2716136
-4.122087	amount	-0.1540601
-4.655868	amounting	-0.08448812
-4.229971	amounts	-0.2369436
-4.533962	amp	-0.08448813
-4.533962	ample	-0.08448813
-4.655868	amplify	-0.08448812
-4.655868	amusing	-0.08448812
-4.655868	amyotrophic	-0.08448812
-2.532882	an	-0.1976994
-4.655868	anachronism	-0.08448812
-4.655868	anachronistic	-0.08448813
-4.655868	analogies	-0.08448812
-4.373839	analyses	-0.08448812
-3.963748	analysis	-0.1487113
-4.373839	analysts	-0.08448813
-4.655868	analyzed	-0.08448813
-4.655868	anathema	-0.08448812
-4.655868	ancient	-0.08448813
-1.583137	and	-0.2742191
-4.655868	andMe	-0.08448812
-4.655868	andalism	-0.08448812
-4.655868	andaround	-0.08448812
-4.655868	andor	-0.08448812
-4.533962	anemic	-0.08448813
-4.122087	anger	-0.1350844
-4.655868	angered	-0.08448813
-4.655868	angrily	-0.08448812
-4.655868	angst	-0.08448812
-4.229971	animal	-0.1487113
-4.655868	animals	-0.08448813
-4.533962	animated	-0.224108
-4.655868	animating	-0.08448814
-4.655868	anipulating	-0.08448812
-4.655868	anipulation	-0.08448812
-4.655868	ankle	-0.08448813
-4.655868	annexation	-0.08448814
-4.533962	anniversaries	-0.08448813
-4.122087	anniversary	-0.2326228
-4.533962	announce	-0.1724184
-3.756643	announced	-0.3301514
-4.373839	announcement	-0.1724184
-4.655868	annoying	-0.08448813
-4.035741	annual	-0.08448813
-4.655868	annualgrowth	-0.08448812
-4.533962	annually	-0.08448813
-4.655868	anointment	-0.08448814
-4.655868	anomaly	-0.08448814
-4.655868	anonymity	-0.08448813
-4.655868	anonymous	-0.08448812
-3.182635	another	-0.1186186
-3.902009	answer	-0.1581524
-4.122087	answers	-0.1724184
-4.655868	antecedent	-0.08448813
-4.655868	anthropogenic	-0.08448812
-4.655868	antiAmericanism	-0.08448813
-4.655868	antiJapanese	-0.08448812
-4.655868	antiNazi	-0.08448813
-4.533962	antiSemitism	-0.08448813
-4.655868	antiSoviet	-0.08448813
-4.655868	antiUS	-0.08448813
-4.655868	antiballistic	-0.08448813
-4.229971	anticipated	-0.08448812
-4.533962	anticipating	-0.08448812
-4.655868	anticommunist	-0.08448812
-4.533962	anticorruption	-0.08448812
-4.655868	antidepressant	-0.08448812
-4.533962	antidote	-0.08448813
-4.122087	antidumping	-0.1923622
-4.655868	antifascism	-0.08448813
-4.655868	antifascist	-0.08448812
-4.655868	antiglobalization	-0.08448813
-4.655868	antimalarial	-0.08448813
-4.533962	antimarket	-0.08448812
-4.655868	antiprofit	-0.08448812
-4.655868	antithesis	-0.08448812
-4.655868	antitrust	-0.08448812
-4.655868	anxieties	-0.08448814
-4.533962	anxiety	-0.08448813
-3.019724	any	-0.1379136
-4.655868	anybody	-0.08448812
-4.373839	anymore	-0.3025371
-3.847965	anyone	-0.196779
-4.035741	anything	-0.2081087
-4.655868	anytime	-0.08448812
-4.373839	anywhere	-0.08448812
-4.655868	apace	-0.08448813
-4.533962	apart	-0.224108
-4.533962	apartheid	-0.08448813
-4.655868	apex	-0.08448812
-4.655868	apitalism	-0.08448813
-4.655868	apolitical	-0.08448813
-4.655868	apologist	-0.08448812
-4.655868	apologize	-0.08448812
-4.655868	apology	-0.08448812
-4.655868	appalling	-0.08448813
-4.655868	appallingly	-0.08448813
-4.373839	apparent	-0.08448813
-4.229971	apparently	-0.08448813
-4.035741	appeal	-0.1799693
-4.533962	appealed	-0.224108
-4.035741	appear	-0.1799693
-4.655868	appearance	-0.08448814
-4.533962	appearances	-0.08448813
-4.035741	appeared	-0.1262317
-3.61699	appears	-0.5099449
-4.533962	appeasement	-0.08448814
-4.655868	apped	-0.08448812
-4.655868	appellation	-0.08448812
-4.655868	appendix	-0.08448812
-4.655868	appenings	-0.08448812
-4.122087	appetite	-0.3338536
-4.655868	appetizing	-0.08448812
-4.655868	applauded	-0.08448812
-4.655868	applicability	-0.08448814
-4.533962	applicable	-0.08448813
-4.655868	applications	-0.08448812
-4.122087	applied	-0.2018705
-4.533962	applies	-0.08448813
-4.229971	apply	-0.1262317
-4.655868	applying	-0.08448813
-4.655868	appoint	-0.08448813
-4.533962	appointed	-0.08448812
-4.533962	appointees	-0.08448813
-4.655868	appointment	-0.08448814
-4.655868	appraisal	-0.08448812
-4.655868	appraisals	-0.08448813
-4.655868	appreciate	-0.08448813
-4.229971	appreciation	-0.1487113
-4.655868	apprehension	-0.08448813
-3.446369	approach	-0.2328456
-4.229971	approaches	-0.08448814
-4.035741	approaching	-0.1724184
-4.122087	appropriate	-0.08448813
-4.655868	appropriated	-0.08448812
-4.533962	approval	-0.08448813
-4.655868	approve	-0.08448813
-4.655868	approves	-0.08448814
-4.533962	approximately	-0.08448813
-4.373839	apt	-0.08448813
-4.229971	ar	-0.08448813
-4.655868	aradigm	-0.08448812
-4.655868	arbiter	-0.08448812
-4.373839	arbitrary	-0.08448813
-4.533962	archetypal	-0.08448812
-4.655868	archetype	-0.08448814
-4.655868	architect	-0.08448814
-4.655868	architecture	-0.08448812
-4.373839	arctic	-0.1724184
-4.533962	arduous	-0.08448813
-2.260509	are	-0.2435298
-3.7173	area	-0.1175558
-3.355737	areas	-0.2431624
-4.229971	arguably	-0.08448813
-3.847965	argue	-0.5029005
-3.61699	argued	-0.3992865
-4.655868	argues	-0.08448812
-4.229971	arguing	-0.2369436
-3.7173	argument	-0.1562255
-4.229971	arguments	-0.1487113
-4.655868	arise	-0.08448812
-4.655868	arises	-0.08448814
-4.655868	arising	-0.08448813
-4.655868	arithmetic	-0.08448812
-4.533962	arm	-0.08448813
-3.7173	armed	-0.12961
-4.655868	armies	-0.08448812
-4.655868	armony	-0.08448812
-4.035741	arms	-0.1587135
-4.229971	army	-0.08448812
-3.26724	around	-0.3624474
-4.533962	arrangement	-0.08448813
-4.035741	arrangements	-0.1262317
-4.533962	array	-0.224108
-4.229971	arrest	-0.08448812
-4.373839	arrested	-0.08448813
-4.655868	arrival	-0.08448814
-4.655868	arrive	-0.08448813
-4.533962	arrived	-0.08448812
-4.655868	arrives	-0.08448812
-4.655868	arrogant	-0.08448813
-4.655868	arsenal	-0.08448812
-4.533962	arsenals	-0.08448812
-4.122087	article	-0.08448812
-4.373839	articles	-0.08448813
-4.533962	articulated	-0.08448812
-4.655868	articulating	-0.08448812
-4.373839	artificial	-0.08448814
-4.533962	artnerships	-0.08448813
-4.533962	arts	-0.08448813
-2.176005	as	-0.4108628
-4.229971	ash	-0.08448813
-4.655868	ashamed	-0.08448813
-4.655868	ashes	-0.08448812
-4.533962	aside	-0.08448814
-3.681227	ask	-0.1175558
-4.035741	asked	-0.1487113
-4.122087	asking	-0.1262317
-4.655868	asks	-0.08448813
-4.122087	aspect	-0.5243859
-4.655868	aspiration	-0.08448812
-4.655868	aspirational	-0.08448812
-4.533962	aspirations	-0.08448812
-4.655868	aspire	-0.08448812
-4.655868	assassinate	-0.08448814
-4.655868	assassinated	-0.08448813
-4.655868	assault	-0.08448812
-4.655868	assembles	-0.08448812
-4.655868	assert	-0.08448813
-4.655868	asserted	-0.08448813
-4.533962	asserts	-0.08448814
-4.533962	assess	-0.08448812
-4.533962	assessed	-0.08448814
-4.655868	assesses	-0.08448812
-4.122087	assessment	-0.1262317
-4.533962	asset	-0.08448813
-4.035741	assets	-0.08448812
-4.533962	assist	-0.08448812
-3.756643	assistance	-0.2054986
-4.373839	associated	-0.08448813
-4.035741	association	-0.1587135
-4.373839	associations	-0.08448813
-4.655868	assume	-0.08448813
-3.902009	assumed	-0.2661007
-4.122087	assumes	-0.1350844
-4.655868	assuming	-0.08448813
-4.533962	assumption	-0.08448813
-4.533962	assumptions	-0.08448813
-4.533962	assurances	-0.08448813
-4.655868	assure	-0.08448812
-4.229971	assured	-0.08448812
-4.655868	assures	-0.08448812
-4.655868	astern	-0.08448812
-4.655868	astinstone	-0.08448813
-4.533962	astonishing	-0.08448812
-4.655868	astounding	-0.08448814
-4.655868	astute	-0.08448813
-4.655868	asualties	-0.08448814
-4.655868	asylum	-0.08448812
-3.963748	asymmetric	-0.1649754
-4.655868	asymmetrical	-0.08448812
-4.533962	asymmetries	-0.08448813
-2.440197	at	-0.4350327
-4.655868	atavistic	-0.08448813
-4.655868	athletic	-0.08448813
-4.229971	ational	-0.08448813
-4.035741	atmosphere	-0.1175558
-4.655868	atomic	-0.08448813
-4.655868	atoms	-0.08448813
-4.655868	atop	-0.08448812
-4.655868	atrocious	-0.08448813
-4.533962	atrocities	-0.08448812
-4.655868	attach	-0.08448813
-4.533962	attachment	-0.08448813
-3.963748	attack	-0.1540601
-4.655868	attacked	-0.08448812
-4.655868	attackers	-0.08448812
-4.035741	attacks	-0.1090499
-4.655868	attained	-0.08448812
-4.655868	attainment	-0.08448812
-4.655868	attemps	-0.08448812
-4.122087	attempt	-0.3486287
-4.229971	attempted	-0.1487113
-4.373839	attempting	-0.1724184
-3.963748	attempts	-0.4799816
-4.655868	attend	-0.08448812
-4.655868	attended	-0.08448813
-3.588115	attention	-0.2198251
-4.655868	attest	-0.08448812
-4.655868	attesting	-0.08448812
-4.122087	attitude	-0.08448813
-4.533962	attitudes	-0.08448813
-4.533962	attract	-0.08448813
-4.373839	attracted	-0.08448812
-4.373839	attractive	-0.08448813
-4.655868	attracts	-0.08448813
-4.655868	attributable	-0.08448814
-4.655868	attributed	-0.08448812
-4.655868	attributes	-0.08448813
-4.655868	auction	-0.08448812
-4.655868	audaciously	-0.08448814
-4.533962	audience	-0.08448813
-4.533962	audited	-0.08448813
-4.533962	augment	-0.08448812
-4.655868	augmented	-0.08448812
-4.655868	augmenting	-0.08448813
-4.655868	augur	-0.08448813
-4.655868	augurs	-0.08448813
-3.963748	austerity	-0.1457562
-4.655868	austerityMichael	-0.08448812
-4.655868	austeritydriven	-0.08448812
-4.655868	austerityinduced	-0.08448813
-4.655868	authentic	-0.08448813
-4.533962	authoritarian	-0.08448812
-4.533962	authoritarianism	-0.08448812
-3.61699	authorities	-0.09724205
-3.756643	authority	-0.1262317
-4.373839	authorized	-0.1724184
-4.655868	auto	-0.08448813
-4.655868	autocratic	-0.08448812
-4.655868	autocrats	-0.08448812
-4.655868	automakers	-0.08448813
-4.533962	automatic	-0.224108
-4.373839	automatically	-0.08448812
-4.655868	automobile	-0.08448813
-4.655868	automobiles	-0.08448813
-4.533962	autonomous	-0.08448812
-4.229971	autonomy	-0.08448813
-4.655868	autopilot	-0.08448812
-4.655868	autos	-0.08448814
-4.373839	autumn	-0.08448812
-4.533962	availability	-0.224108
-3.847965	available	-0.1522699
-4.655868	avenots	-0.08448812
-4.655868	avenue	-0.08448812
-3.588115	average	-0.129908
-4.655868	averse	-0.08448812
-4.655868	aversion	-0.08448812
-4.533962	avert	-0.08448813
-4.655868	averted	-0.08448812
-4.533962	averting	-0.08448813
-4.655868	aves	-0.08448813
-4.373839	aviation	-0.08448812
-4.655868	aving	-0.08448812
-4.373839	avoid	-0.1118667
-4.655868	avoidance	-0.08448814
-4.655868	avoided	-0.08448812
-4.533962	avoiding	-0.08448812
-4.533962	awakening	-0.08448812
-4.533962	award	-0.1724184
-4.229971	aware	-0.224108
-4.533962	awareness	-0.08448813
-4.655868	awash	-0.08448814
-3.488677	away	-0.3268092
-4.655868	awe	-0.08448812
-4.655868	azis	-0.08448813
-4.533962	baby	-0.08448812
-4.655868	babyboom	-0.08448813
-3.280793	back	-0.2213934
-4.655868	backdrop	-0.08448813
-4.122087	backed	-0.5243859
-4.229971	background	-0.08448814
-4.373839	backing	-0.08448812
-4.655868	backlash	-0.08448814
-4.533962	backup	-0.08448813
-4.655868	backward	-0.08448812
-4.655868	backwardness	-0.08448814
-4.655868	backwards	-0.08448814
-3.588115	bad	-0.118531
-4.035741	badly	-0.120017
-4.655868	bag	-0.08448814
-4.655868	bail	-0.08448814
-4.655868	bailed	-0.08448814
-4.035741	bailout	-0.08448813
-4.533962	bailouts	-0.08448813
-3.7173	balance	-0.1378408
-4.229971	balanced	-0.08448813
-4.035741	balances	-0.1118667
-4.655868	balancesheet	-0.08448813
-4.533962	balancing	-0.224108
-4.655868	balkanized	-0.08448813
-4.655868	ball	-0.08448814
-4.655868	ballistic	-0.08448813
-4.655868	ballooning	-0.08448813
-4.655868	ballot	-0.08448813
-3.963748	ban	-0.1457562
-4.655868	banality	-0.08448812
-4.533962	band	-0.08448813
-3.799908	bank	-0.1018893
-4.373839	bankers	-0.08448812
-3.902009	banking	-0.2880961
-4.655868	bankroll	-0.08448813
-4.533962	bankrupt	-0.08448812
-4.229971	bankruptcy	-0.08448813
-3.511485	banks	-0.1082355
-4.655868	banner	-0.08448812
-4.655868	banners	-0.08448812
-4.655868	banning	-0.08448812
-4.655868	bantustans	-0.08448813
-4.655868	barbaric	-0.08448812
-4.655868	barbarize	-0.08448812
-4.655868	barely	-0.08448813
-4.655868	bargain	-0.08448812
-4.655868	bargains	-0.08448813
-4.655868	baroque	-0.08448812
-4.655868	barred	-0.08448814
-4.655868	barrel	-0.08448814
-4.533962	barrels	-0.08448813
-4.655868	barren	-0.08448812
-4.533962	barrier	-0.08448812
-4.229971	base	-0.1487113
-3.389755	based	-0.8331819
-4.655868	baseline	-0.08448812
-4.533962	bases	-0.08448812
-3.756643	basic	-0.1032572
-4.655868	basically	-0.08448813
-3.756643	basis	-0.2040161
-4.655868	basketball	-0.08448812
-4.655868	bathwater	-0.08448812
-4.655868	battering	-0.08448813
-4.122087	battle	-0.1350844
-4.655868	battled	-0.08448812
-4.122087	battlefield	-0.1799693
-4.655868	battles	-0.08448812
-2.963193	be	-0.1885497
-4.122087	bear	-0.1350844
-4.655868	bears	-0.08448813
-4.655868	beaten	-0.08448813
-4.533962	beautiful	-0.08448812
-4.533962	beautifully	-0.08448813
-4.655868	beauty	-0.08448814
-3.7173	became	-0.1389344
-2.740143	because	-0.3927288
-3.280793	become	-0.1834734
-3.902009	becomes	-0.1154137
-4.122087	becoming	-0.1067587
-4.373839	bed	-0.1724184
-4.655868	bedrock	-0.08448814
-3.339678	been	-0.1278834
-4.655868	beer	-0.08448813
-4.655868	befall	-0.08448813
-4.655868	befitting	-0.08448813
-3.17179	before	-0.3578451
-3.681227	began	-0.2811382
-4.655868	beget	-0.08448814
-4.533962	beggarthyneighbor	-0.08448813
-4.655868	begged	-0.08448812
-3.647922	begin	-0.2968166
-3.799908	beginning	-0.1339543
-4.533962	beginnings	-0.224108
-4.229971	begins	-0.1487113
-4.373839	begun	-0.1487113
-4.533962	behalf	-0.08448813
-4.373839	behave	-0.08448813
-3.588115	behavior	-0.2335913
-4.655868	behaviorist	-0.08448812
-4.655868	beheaded	-0.08448813
-3.61699	behind	-0.22652
-4.655868	behindthescenes	-0.08448812
-4.655868	beholden	-0.08448812
-3.309238	being	-0.1088245
-4.655868	bejeweled	-0.08448814
-4.655868	belated	-0.08448813
-4.229971	belief	-0.1262317
-4.229971	beliefs	-0.1487113
-3.511485	believe	-0.4625159
-4.122087	believed	-0.2018705
-4.655868	believers	-0.08448812
-4.533962	believes	-0.08448813
-4.533962	believing	-0.224108
-4.655868	bells	-0.08448814
-4.373839	belong	-0.1724184
-4.655868	belonged	-0.08448812
-4.655868	belonging	-0.08448813
-3.647922	below	-0.2661007
-4.655868	beneath	-0.08448812
-4.655868	benefactors	-0.08448813
-4.122087	beneficial	-0.08448813
-4.655868	beneficiaries	-0.08448814
-4.655868	beneficiary	-0.08448813
-3.561041	benefit	-0.118531
-4.229971	benefited	-0.2369436
-4.655868	benefiting	-0.08448813
-3.324192	benefits	-0.1747457
-4.533962	benign	-0.08448812
-4.655868	beset	-0.08448812
-4.373839	beside	-0.1724184
-4.655868	besides	-0.08448813
-3.681227	best	-0.1040251
-4.533962	bestknown	-0.08448814
-4.655868	bestowed	-0.08448814
-4.655868	bestperforming	-0.08448812
-4.533962	bet	-0.08448812
-4.533962	betray	-0.08448813
-4.655868	betrayed	-0.08448813
-3.280793	better	-0.143262
-4.655868	betterinformed	-0.08448814
-4.655868	betterknown	-0.08448813
-2.925154	between	-0.2750796
-4.655868	beureing	-0.08448812
-3.488677	beyond	-0.1999234
-4.373839	bias	-0.08448813
-4.655868	biased	-0.08448813
-4.373839	bid	-0.08448812
-3.61699	big	-0.08448813
-4.533962	bigger	-0.08448812
-4.533962	biggest	-0.08448812
-4.655868	bigotry	-0.08448813
-4.655868	bigticket	-0.08448813
-4.655868	bigtime	-0.08448812
-3.7173	bilateral	-0.1288167
-4.035741	bill	-0.08448812
-3.26724	billion	-0.2561509
-4.229971	billions	-0.2369436
-4.655868	bills	-0.08448813
-4.655868	bin	-0.08448812
-4.655868	binLaden	-0.08448813
-4.655868	bind	-0.08448812
-4.533962	binding	-0.08448813
-4.655868	biodiversity	-0.08448812
-4.655868	bioethics	-0.08448813
-4.533962	biofuels	-0.08448813
-4.655868	biological	-0.08448813
-4.655868	biologically	-0.08448812
-4.655868	biologists	-0.08448813
-4.533962	bipolarity	-0.08448812
-4.655868	birth	-0.08448812
-4.533962	bit	-0.08448813
-4.533962	biting	-0.08448813
-4.655868	bitterly	-0.08448813
-4.533962	bizarre	-0.08448813
-3.756643	black	-0.1389344
-4.655868	blackouts	-0.08448813
-4.655868	blacks	-0.08448813
-4.533962	blackswan	-0.08448813
-4.655868	blame	-0.08448812
-4.655868	blamed	-0.08448812
-4.655868	blaming	-0.08448813
-4.655868	blanket	-0.08448813
-4.373839	bleach	-0.1724184
-4.655868	bleached	-0.08448812
-4.122087	bleaching	-0.1350844
-4.655868	bleak	-0.08448812
-4.655868	bleakly	-0.08448813
-4.655868	bled	-0.08448813
-4.655868	blending	-0.08448813
-4.655868	blessing	-0.08448814
-4.655868	blessings	-0.08448814
-4.655868	blind	-0.08448812
-4.655868	bloated	-0.08448814
-4.533962	bloc	-0.08448812
-4.533962	block	-0.08448813
-4.373839	blockade	-0.08448812
-4.655868	blocked	-0.08448813
-4.533962	blocking	-0.08448814
-4.655868	blocks	-0.08448812
-4.373839	blocs	-0.08448813
-4.533962	blog	-0.08448813
-4.655868	blogging	-0.08448812
-4.533962	blood	-0.08448814
-4.229971	bloody	-0.08448813
-4.533962	blow	-0.08448812
-4.655868	blowing	-0.08448812
-4.373839	blows	-0.08448812
-4.533962	blue	-0.08448813
-4.655868	blueprint	-0.08448812
-4.655868	bluntly	-0.08448812
-4.373839	board	-0.08448812
-4.533962	boat	-0.08448813
-4.655868	bode	-0.08448813
-4.533962	bodies	-0.08448812
-4.533962	body	-0.08448814
-4.655868	bogus	-0.08448814
